{"input": [1.1467140913009644, -0.3423226773738861, 1.0599838495254517, 1.2917191982269287, -0.15971700847148895, 1.3977360725402832, -0.5841010212898254, 0.056450773030519485, 0.8565769791603088, 0.03742658719420433, 0.4131597876548767, -0.7853855490684509, -0.8580248355865479, -0.021309170871973038, 0.7347690463066101, -0.0895647332072258, -0.19864851236343384, -0.5808315277099609, -0.8836430311203003, -1.2746988534927368, -0.3312073349952698, 0.7814234495162964, 0.409049928188324, 1.9369748830795288, -0.249897763133049, 1.3783047199249268, 1.3394418954849243, -0.1324019581079483, -0.7191581130027771, -0.21412569284439087, -0.7865344882011414, -1.0035580396652222, -0.5883491635322571, 0.34402501583099365, 0.4259195029735565, 1.5934752225875854, 1.2029688358306885, 2.199378252029419, 0.5618664026260376, -0.10586292296648026, -0.5983352065086365, -1.3594053983688354, -1.8729314804077148, 1.5526095628738403, -0.4880920350551605, 1.1496328115463257, -0.3275343179702759, 0.20141702890396118, -1.52433443069458, -1.0376752614974976, 1.7946499586105347, 0.9312558174133301, -0.15121997892856598, -0.2850503623485565, -0.32186275720596313, 0.7971836924552917, 2.273200035095215, -1.2664918899536133, 0.5628995299339294, 0.7758184671401978, 0.048722054809331894, 0.2481088638305664, 0.21970826387405396, 0.36607033014297485, 0.12670493125915527, -0.32100921869277954, 0.5405706167221069, -0.8739057183265686, 0.4684596657752991, 0.17558178305625916, -1.0055930614471436, -2.313337564468384, -0.18663977086544037, 0.14601092040538788, 0.5471028089523315, -0.5871146321296692, 0.2154245674610138, 0.24453428387641907, -0.36758941411972046, -2.032949209213257, 0.709469199180603, 0.32833153009414673, 1.1513137817382812, 0.7595876455307007, 0.587404727935791, -1.6048575639724731, -0.6978493928909302, -0.9875602722167969, 0.3271053433418274, 1.1179770231246948, 0.05217811092734337, 0.6569911241531372, 1.2917699813842773, 0.12528321146965027, 0.059999097138643265, -0.40545493364334106, 1.8101953268051147, 1.299194097518921, -1.1563031673431396, 1.3763967752456665, -0.6656062006950378, 1.1458584070205688, 0.94455486536026, 1.5427570343017578, -0.8124212622642517, 0.37107712030410767, -0.13565771281719208, -0.5909723043441772, -0.3810379207134247, 0.1584356427192688, -1.0667930841445923, 1.7897793054580688, 0.14674660563468933, -0.1448175609111786, -2.6943845748901367, -1.3912948369979858, 0.6228201985359192, 0.5961577296257019, 0.08326087892055511, -0.11546533554792404, 0.571354329586029, 0.5343570709228516, -0.2170242965221405, 1.7143146991729736, -0.6897038221359253, 1.3628309965133667, 1.4375991821289062, -0.03376602381467819, -1.0780470371246338, -0.4547386169433594, 0.20814105868339539, 0.345816433429718, 0.36207666993141174, -0.5645654201507568, -0.7818213701248169, -0.4897465705871582, -0.24952657520771027, 0.94301438331604, 0.7330189347267151, -1.7493534088134766, 1.690994381904602, -1.1396560668945312, 0.8697468638420105, -2.527172088623047, -1.610042929649353, 1.9423727989196777, 0.7460861802101135, 0.6819117665290833, -0.5699282884597778, 0.2714937627315521, 1.263335108757019, -0.6248086094856262, 0.20200860500335693, -0.3370409309864044, 0.8197894096374512, -0.447878360748291, -1.1587952375411987, 0.8180774450302124, -0.8568236231803894, 0.9485359787940979, -0.2838253974914551, 0.9555574059486389, 1.2140079736709595, -0.35083523392677307, -0.629570722579956, 1.6727954149246216, 0.010281153954565525, -1.3587567806243896, -0.36481961607933044, -0.15820080041885376, -0.13193616271018982, 0.13807398080825806, 1.0843546390533447, 0.03050951659679413, 0.39699187874794006, -1.0055129528045654, 0.3061503469944, -0.245561882853508, -1.395973801612854, -1.0784707069396973, 1.3941805362701416, 1.3355939388275146, 0.9083589315414429, 1.6934804916381836, 1.7777454853057861, 2.060201644897461, 0.7743686437606812, 0.18082982301712036, 0.1823335587978363, -1.0838227272033691, -1.8464221954345703, -0.8120284676551819], "gate_weight": [-1.5338146686553955, 1.5187495946884155, -1.141085147857666, 0.08607674390077591, -1.265262246131897, 1.4068753719329834, -1.301940679550171, -0.6332153081893921, 0.02613532729446888, 2.6688590049743652, 0.055650003254413605, -1.0139305591583252, 0.00479241693392396, 0.2648654580116272, 0.6238540410995483, 0.9381202459335327, -0.09675969928503036, -0.7258620262145996, -0.4237804114818573, -0.8252329230308533, 1.16740083694458, -0.45666635036468506, -0.5665498971939087, -0.0875561386346817, -1.926543951034546, 1.7297272682189941, -0.49574849009513855, -1.319187879562378, 0.7463241219520569, 0.41809603571891785, -0.6758390069007874, -1.2597839832305908, 1.1206371784210205, -0.8625572323799133, -0.8233135938644409, -1.2743414640426636, -1.5685347318649292, -0.6070734262466431, -0.19996455311775208, 0.5289739370346069, 0.6920315027236938, 0.0068500530906021595, 0.3356072008609772, 0.9266125559806824, -0.19175618886947632, 0.8411573171615601, 3.384072780609131, -1.2268567085266113, 1.504199743270874, 0.6520902514457703, 1.2881470918655396, 0.2422856241464615, -0.37427231669425964, -0.6837400794029236, -0.748890221118927, 0.06067511811852455, 1.069500207901001, -0.07823033630847931, -0.12904879450798035, -1.4488940238952637, 1.0648393630981445, 0.9568492770195007, -0.6728205680847168, -1.1079070568084717, -0.5446324348449707, 0.7178753018379211, 0.19746369123458862, -0.37712767720222473, 0.42454269528388977, 1.106458067893982, -0.44774946570396423, -0.3970794677734375, -0.9010578393936157, 0.7221882343292236, 0.261901319026947, -0.34770748019218445, -1.1616729497909546, 0.2741246223449707, -1.0059845447540283, 2.3311338424682617, -0.29264312982559204, -0.028987858444452286, 2.0005905628204346, 2.6196088790893555, 0.4971214532852173, -0.14662963151931763, -1.4041191339492798, -2.1410391330718994, -1.5007776021957397, 0.7395172119140625, -1.0297194719314575, 0.08453014492988586, -0.28542575240135193, 0.3123060166835785, 0.309906929731369, 0.011964691802859306, 0.8767995238304138, 0.7154831886291504, 0.9026046991348267, 0.019183985888957977, 0.3289474546909332, 1.5396167039871216, -0.9631132483482361, 0.4736519753932953, 0.35964763164520264, -0.6800411939620972, 1.0663974285125732, -1.3471179008483887, 1.234668254852295, 2.6480836868286133, -0.5206394195556641, -0.4451669454574585, 0.258737713098526, -1.877064824104309, 0.035393908619880676, -0.109804667532444, -0.00353269767947495, -0.33773595094680786, -0.3031696081161499, 0.20821821689605713, 0.18738716840744019, -0.060186322778463364, 0.06052619218826294, 1.0035984516143799, 0.9418660402297974, -0.4471157193183899, 0.3832922875881195, -0.8037444353103638, 1.6938555240631104, -0.5067789554595947, -0.6197333335876465, 0.0553148090839386, -1.5899567604064941, -0.8355780839920044, -1.3405593633651733, 0.12614701688289642, -0.6305503249168396, 0.16416022181510925, 0.8298391103744507, -0.009893194772303104, 0.4013465344905853, -0.5420747995376587, -0.4300828278064728, 1.473000407218933, -1.7596814632415771, 0.41957053542137146, -1.6468199491500854, -1.6493531465530396, 1.7287558317184448, -0.5526019334793091, -0.9914852380752563, 2.4474070072174072, 0.09204909950494766, 0.07105597108602524, 0.24646055698394775, 0.02792034111917019, 0.717282772064209, 0.1089295893907547, 1.680917739868164, 0.7398162484169006, -0.45241019129753113, -1.2883989810943604, -0.3272361159324646, 0.1581883579492569, -1.2166494131088257, -0.9638413786888123, 1.2776769399642944, -0.09435905516147614, 1.8107622861862183, -0.5807374119758606, 0.7545616626739502, -2.474579334259033, -0.10174403339624405, -0.7556038498878479, -0.12886635959148407, 0.4158478379249573, 1.0252982378005981, 0.400233656167984, 0.34490275382995605, -0.17736585438251495, 0.13816644251346588, -0.3894824683666229, -0.030089719220995903, -1.1851094961166382, 0.28690195083618164, 0.5505641102790833, -0.1001574769616127, 1.3685625791549683, 1.9632517099380493, 1.4356187582015991, 0.47483205795288086, -1.4375439882278442, 0.1455412656068802, -0.08976715803146362, 0.17665131390094757, -1.2597341537475586, -1.03762686252594, 1.1437827348709106, -0.008233616128563881, -0.5254237651824951, 0.7199887633323669, 0.08464191854000092, 0.9091541171073914, 0.12360411137342453, 0.6653125286102295, 0.3124562203884125, -0.04822172597050667, -0.7835234999656677, 1.2233738899230957, -0.8772532343864441, -0.33845236897468567, -0.47829511761665344, 0.02843262255191803, 0.09811677038669586, 1.1359481811523438, -0.4788620173931122, -0.7035096883773804, 1.250800609588623, -1.0840381383895874, 1.258622407913208, 0.15041464567184448, 1.8597878217697144, -1.7907634973526, 0.6990543007850647, -0.210261270403862, -0.9319580793380737, 0.579331636428833, -0.4634353518486023, 0.7059937119483948, 0.5543832182884216, -0.6072986125946045, -0.1526106745004654, 0.4288885295391083, -0.8782987594604492, -0.29132142663002014, -0.4424471855163574, -0.03700192645192146, -0.3528607487678528, -0.16366910934448242, -1.5203466415405273, -1.0596253871917725, -0.5278066396713257, -0.6352946758270264, 1.8757439851760864, 0.07771967351436615, -1.447609543800354, -0.9958609938621521, 0.2500406503677368, -2.5801572799682617, 0.1412120759487152, -0.08176852017641068, -0.6421776413917542, -1.6715341806411743, -0.039149582386016846, 0.8646162748336792, 0.6517224311828613], "expert_w1": [[1.4494415521621704, -2.6783761978149414, -0.4511721730232239, 0.5661687850952148, -1.6553360223770142, 0.2560962438583374, -0.8031262755393982, 1.0965934991836548, -0.6152186989784241, -0.6547046303749084, -0.5987861156463623, 0.11344898492097855, 0.8597766757011414, -0.2637062072753906, 2.371272563934326, -0.6743923425674438, 0.08678559213876724, 0.4621826410293579, 0.515979528427124, 0.14897389709949493, 0.7543739676475525, -0.4654541313648224, 1.3550779819488525, 0.22512049973011017, -1.049973487854004, -0.5932092070579529, 0.5634238719940186, 0.4627903997898102, -1.2336479425430298, 0.5394483804702759, 0.7871286869049072, 0.9226832389831543, -0.019532842561602592, 0.33947792649269104, -0.605726957321167, 1.692084789276123, 1.3362081050872803, -1.1807278394699097, 0.17320528626441956, 0.42276403307914734, -0.2077980488538742, -0.5423085689544678, -1.0097073316574097, -0.9926074147224426, -0.0994686484336853, -0.43889766931533813, 1.1412546634674072, -0.5146408081054688, 1.2637807130813599, -0.34955209493637085, -0.10012079030275345, -1.2561506032943726, 0.5896055102348328, -1.5393346548080444, -0.49735525250434875, -0.3883747458457947, 0.06050673872232437, -0.9475423097610474, 1.0741852521896362, 0.3112676739692688, -0.5110366940498352, -0.937572181224823, -0.09266219288110733, -1.1869994401931763, 0.8230568170547485, 1.8299648761749268, 1.2250207662582397, -1.204612374305725, -1.0470316410064697, -0.4267141819000244, -1.5358222723007202, -0.9628989696502686, -0.9241974353790283, 0.3384803235530853, 0.23594236373901367, -1.3992528915405273, -1.5642170906066895, 0.9613422751426697, 1.609301209449768, -0.9261229634284973, 0.42033496499061584, -1.3741602897644043, -0.6026298403739929, -1.6693415641784668, 0.3623480498790741, -1.2072352170944214, 0.2091376930475235, 0.4525996446609497, -2.3695576190948486, -0.014010847546160221, 2.1216495037078857, 1.664989948272705, 1.4040716886520386, 0.32949262857437134, -0.9314044117927551, -0.31354302167892456, -0.27977868914604187, -1.0217126607894897, -0.41255834698677063, 0.13538549840450287, 1.6361479759216309, 1.943544626235962, -2.2430930137634277, -1.2456457614898682, 0.5570484399795532, -0.8283900022506714, -0.7416988611221313, 0.19576895236968994, -0.5870514512062073, 0.9109600782394409, -0.2504076659679413, 1.9349442720413208, -1.592329978942871, 1.3759326934814453, -0.1488313227891922, -0.0663352683186531, -0.004167282022535801, -0.07578188180923462, 0.39441683888435364, 0.28371158242225647, 0.12692999839782715, -1.5579501390457153, -1.2533626556396484, 0.7894126772880554, 2.088848829269409, -0.13327404856681824, 1.0423636436462402, 0.1462712585926056, -0.01554153673350811, 1.0634218454360962, -0.4387563169002533, -0.2856539189815521, 0.6955698132514954, -0.28328371047973633, -0.39992377161979675, -3.1391077041625977, -2.1124136447906494, -0.970646321773529, -0.24267877638339996, 0.020684968680143356, 1.3166669607162476, -0.8760283589363098, 0.6122329831123352, 1.0598224401474, -0.27881085872650146, 1.3711694478988647, 1.459584355354309, -0.05811150372028351, 0.8137916326522827, 1.426416277885437, 0.5489107370376587, 2.134228467941284, 1.191245436668396, 1.5182112455368042, -0.4333868622779846, 0.11957728117704391, -0.8685868978500366, -1.3933467864990234, 0.9848604798316956, 0.7050867676734924, 0.7213032841682434, -0.02551637962460518, -0.24282269179821014, -1.605137586593628, 2.125779867172241, -0.7746283411979675, -0.8126469254493713, -0.5207321047782898, 0.8011494278907776, 0.7054345607757568, -1.988996148109436, -0.4075078070163727, -0.8008636236190796, -0.1938789188861847, -1.0733826160430908, -1.077903389930725, 0.5339651703834534, -0.49861907958984375, 0.62729811668396, -0.8161725401878357, 1.1085772514343262, 0.701445460319519, 0.29316455125808716, 0.9304805397987366, 0.270657479763031, 0.13326220214366913, 0.11675438284873962, 0.32840850949287415, 0.9603530168533325, 0.19057504832744598, -0.35920777916908264, -0.07985962927341461, -0.0931144654750824, 0.340917706489563, -0.11106345802545547, -0.253223180770874, -0.2050737738609314, -0.5262323617935181, -0.14679917693138123, -0.5643125772476196, -0.5620260834693909, 1.2707034349441528, -0.39520740509033203, -0.5149030089378357, -0.27654144167900085, -0.11922591179609299, 2.8942272663116455, -1.2854955196380615, -1.7562381029129028, 0.8690716624259949, -2.1850926876068115, -0.878754734992981, -1.366817593574524, -1.443727731704712, -0.8136854767799377, 1.1005316972732544, 1.1912379264831543, 0.5296614766120911, -0.47267016768455505, -1.0019198656082153, -0.23036743700504303, -1.2747783660888672, 0.6885259747505188, -0.8132483959197998, -0.22465986013412476, 0.6650466918945312, 1.1174993515014648, 1.407057523727417, 0.2216988056898117, -0.14175236225128174, -0.049253810197114944, -1.3306610584259033, 0.34847357869148254, -0.967734158039093, -0.47914087772369385, -0.5490345358848572, 0.8809356093406677, -1.334943175315857, 0.42501235008239746, -0.7338900566101074, -1.3218493461608887, 0.36466747522354126, -0.1583177000284195, 0.17838464677333832, -1.2195169925689697, -0.4939052164554596, 0.12666232883930206, -1.2149628400802612, 0.7618014216423035, 0.10989298671483994, -0.1792265623807907, 1.2320746183395386, 0.38330376148223877, 0.387969434261322, -1.6485871076583862, -1.3694499731063843, 0.48220905661582947, 0.11902277916669846, -0.3474489450454712, 0.07921108603477478, -1.0202440023422241, -0.6252378225326538, -0.03410738706588745, -0.09975239634513855, -0.30824679136276245, 0.32600489258766174, 0.645832359790802, -0.10989236831665039, 0.5746920704841614, 0.5010005235671997, -0.892866849899292, 0.2949778437614441, 0.707014262676239, 0.35234561562538147, 0.15938147902488708, 0.28472575545310974, -0.6936174631118774, 0.6325037479400635, -1.2137417793273926, 0.7733103632926941, -1.8294296264648438, -1.0691803693771362, 1.6787277460098267, 1.2009421586990356, 0.39876580238342285, -0.4714582860469818, 0.015346168540418148, -0.5545952320098877, 0.094231978058815, 0.9352473020553589, -0.1118045374751091, 0.7982540726661682, -0.411950021982193, -0.7453442811965942, 1.5152260065078735, 0.6763800978660583, 1.4426839351654053, -0.7091834545135498, 0.4339670240879059, 0.8088598847389221, 0.4507141411304474, 0.05337774008512497, 0.7121622562408447, 0.08683046698570251, -0.15192189812660217, 1.1738442182540894, -0.9715607166290283, -0.12339981645345688, -0.5246257781982422, -1.1773942708969116, -0.04258069023489952, -0.40749385952949524, 0.3253311812877655, 0.12943509221076965, 0.5197685360908508, 0.21514980494976044, -0.32109466195106506, -0.1659904420375824, -0.34026631712913513, 0.565098226070404, 0.42897018790245056, 0.31006109714508057, 2.124375820159912, -0.5241540670394897, -0.6136437058448792, 0.7804237008094788, -0.05150341987609863, 0.11242207884788513, 0.6586054563522339, -0.5867230892181396, 0.7180790901184082, -0.022618668153882027, -0.8299659490585327, 0.03947924077510834, -1.365537166595459, 0.5273354649543762, -1.231204628944397, 0.014526624232530594, 1.2478843927383423, 2.215336799621582, 2.5004076957702637, 0.6538236141204834, -0.4072001278400421, 0.878876805305481, 0.06586417555809021, -0.18459390103816986, -1.26406729221344, 1.6487175226211548, 2.794506549835205, -0.3321307599544525, 0.9571834206581116, 1.9998680353164673, -1.3755320310592651, 1.1075832843780518, 0.5510525107383728, 0.503794252872467, -1.2993521690368652, -0.8630626201629639, -0.370514452457428, 0.4433152973651886, 0.5473458170890808, 0.24303540587425232, -0.6980350613594055, 0.22000645101070404, -0.2967911958694458, -0.4644510746002197, 0.36669737100601196, 0.9985805749893188, -0.4380728602409363, -0.9008636474609375, 0.0360945500433445, 0.7792248129844666, -1.045405387878418, 0.7506412863731384, -0.18792903423309326, -0.5705313682556152, 0.901641845703125, -0.8239279389381409, 1.2108285427093506, -0.6219602823257446, -1.2217485904693604, -1.2331809997558594, -0.22331173717975616, -0.3499528169631958, 1.1876546144485474, 0.5218672752380371, -0.7060281038284302, -0.13148728013038635, -1.8209559917449951, -0.1470635086297989, 0.9229037165641785, -2.1448488235473633, 0.8923406004905701, 0.7959801554679871, 0.9668673872947693, -1.007492184638977, -1.1195425987243652, 1.5325371026992798, -0.46216559410095215, -0.08343059569597244, 0.3591175675392151, 0.7647925615310669, 0.2153659164905548, -0.7971384525299072, -0.4111177325248718, 0.531110405921936, 0.6144243478775024, 0.8510550856590271, 1.5085190534591675, 0.7345113158226013, 0.9658389687538147, -0.5903813242912292, -0.3112129867076874, 1.5977160930633545, -0.7298856973648071, -1.5211132764816284, 0.5127841830253601, 0.1036486104130745, 0.7661820650100708, -1.0546635389328003, -0.01849203370511532, 2.419104814529419, 2.1947574615478516, -0.607761561870575, -0.7651491165161133, 2.893112897872925, -0.4323091506958008, -2.2399895191192627, -0.32739317417144775, -1.0492911338806152, 0.9822286367416382, -1.3776464462280273, 0.7555044293403625, -0.35851144790649414, -1.368226408958435, 1.095987319946289, -0.28731876611709595, -1.5086816549301147, 1.4102603197097778, -0.5584808588027954, -1.092816948890686, 2.0128161907196045, -0.08223026245832443, -0.1017475426197052, -2.0194826126098633, -0.8432554602622986, -0.016222331672906876, 0.7077379822731018, -1.8543355464935303, -0.8401285409927368, 1.7302253246307373, -1.694339632987976, 0.6571831703186035, -0.16326533257961273, 1.99302077293396, -0.08280331641435623, -0.26226377487182617, 0.16990524530410767, 0.9938910007476807, -0.361624151468277, 0.763995349407196, 0.2611989974975586, -0.24784526228904724, -0.033606380224227905, 1.5282537937164307, -0.08879221975803375, -1.2704998254776, 0.28207045793533325, 1.137972354888916, -0.7682228088378906, -0.5694259405136108, -1.3159809112548828, 0.16378772258758545, 0.6896936297416687, 0.969325840473175, 2.451244592666626, 0.20132069289684296, -0.19295646250247955, 1.513489842414856, -0.7766048312187195, 0.8692696690559387, 1.508544921875, -1.1084657907485962, 0.33350762724876404, 0.10201496630907059, 0.5285796523094177, 1.2008808851242065, -0.1818617880344391, -0.29819273948669434, -1.5094563961029053, -0.08327776193618774, 1.3453878164291382, -0.467098593711853, 1.0659515857696533, -0.5674659013748169, -0.9505965709686279, 0.3189719319343567, 0.6661726236343384, 1.1482740640640259, -0.041095808148384094, -0.1984030306339264, -0.5387250781059265, -1.3100626468658447, 0.12178663164377213, -0.030877841636538506, -1.2453242540359497, -0.5660058259963989, -0.12757723033428192, -0.21153531968593597, 0.08386018872261047, 0.09578610956668854, 0.5946382284164429, 0.8746616244316101, -1.4565703868865967, 0.6986196637153625, -1.7053524255752563, -1.3506938219070435, -1.7855771780014038, -0.600608229637146, 0.5930641889572144, -1.5609678030014038, -0.6473598480224609, 0.5143418908119202, -0.5938344597816467, 0.36124691367149353, 0.6499106287956238, 0.623325765132904, 0.25741294026374817, 0.5073046088218689, 0.3068845570087433, 1.1510891914367676, 0.8144160509109497, -0.49436166882514954, 0.013433768413960934, -0.5888434052467346, -1.37858247756958, -0.6264159679412842, 0.8036120533943176, -0.7297960519790649, -0.1308126002550125, -1.6893469095230103, -0.4498797655105591, 0.5409416556358337, -0.28556981682777405, -0.09871235489845276, 0.7099510431289673, -1.0161004066467285, -1.653021216392517, 0.1731334924697876, -0.5173540711402893, -2.7400929927825928, -0.6841616630554199, -2.245004177093506, -0.9742851853370667, -0.29715681076049805, 0.8018558025360107, -1.2439038753509521, -1.171921730041504, -1.292079210281372, -0.453419953584671, 1.3906105756759644, -0.7673879265785217, -0.7793620824813843, -0.31632113456726074, -0.9285515546798706, -1.6020598411560059, 0.6467729806900024, -2.0507047176361084, 1.2799031734466553, 1.8462843894958496, -0.3867649435997009, 1.2629446983337402, -2.073171854019165, -0.3855259120464325, -0.15546593070030212, 0.909705638885498, 0.6654407382011414, -0.25762203335762024, -0.010314715094864368, 1.4986671209335327, 2.041029453277588, 0.04383951798081398, 0.8332939147949219, -0.7102330923080444, -2.034187078475952, -1.2944786548614502, -0.404489666223526, -0.8155665993690491, -0.8428406715393066, 0.1857832819223404, -1.0429861545562744, 0.6068447232246399, 1.2697198390960693, 0.5125080943107605, 0.0006493050022982061, 0.17503789067268372, -0.0698728933930397, -0.09266754239797592, -0.264350950717926, -0.756869375705719, -2.3675625324249268, 0.0055257221683859825, -1.1598484516143799, -0.6064195036888123, 0.1130746528506279, -0.022436421364545822, 0.5548655390739441, 0.6678482294082642, 0.5773727297782898, -1.6270323991775513, -0.5413168668746948, 0.19549208879470825, 0.8554456233978271, 2.150101900100708, -1.1701229810714722, 0.5263410210609436, 0.5938928127288818, 0.7845008373260498, 0.42293494939804077, 2.012091636657715, 1.2340753078460693, -0.6480270624160767, -0.32579395174980164, -1.9581680297851562, 1.102234959602356, -0.6372961401939392, -0.34714552760124207, 0.916873574256897, 0.36950764060020447, 1.0547330379486084, 0.05083516612648964, 0.5895547270774841, 0.7828763127326965, -1.5780729055404663, -0.204746812582016, 0.6791208982467651, -1.6421829462051392, 0.5380074977874756, -0.8499809503555298, 1.0750902891159058, -0.21259181201457977, -0.8498480916023254, 0.10213633626699448, -2.036318302154541, 0.7423003315925598, 2.3513877391815186, -0.33188381791114807, -0.6456270813941956, -0.14432185888290405, -1.0099447965621948, -1.0550001859664917, -0.5574143528938293, -0.2621680498123169, 1.2987117767333984, 1.3547792434692383, 1.1067461967468262, -0.24683769047260284, 0.29021307826042175, 0.6421017050743103, -1.32224440574646, -0.8785720467567444, -0.4335106909275055, 1.5183494091033936, 0.03413953632116318, -0.5364435911178589, 0.44798514246940613, -0.047479428350925446, -0.26728516817092896, 0.1343853771686554, -0.11977393180131912, -0.6246077418327332, 2.399268865585327, 0.5792272686958313, 0.38368597626686096, 0.39793527126312256, -0.8620243668556213, -0.8131201863288879, -1.2694730758666992, -0.6039120554924011, -1.0306538343429565, 0.19693997502326965, -1.4670730829238892, 0.2872046232223511, -0.08399472385644913, -0.709792971611023, 1.7814438343048096, -0.6730070114135742, -0.49306151270866394, -0.6067451238632202, -0.3758774995803833, -0.5171579122543335, -0.09293763339519501, -0.6105575561523438, 1.6474862098693848, -0.9166454076766968, 0.7161154747009277, -0.231664776802063, 0.19862927496433258, -2.5898449420928955, 0.3453764021396637, -0.581682026386261, 0.29267388582229614, 0.4577482342720032, -0.7199215888977051, 0.3331941068172455, -0.612129807472229, -0.5416601300239563, 1.5594606399536133, -0.8038390278816223, 1.4826959371566772, 0.10114579647779465, 0.7384793162345886, -1.5959899425506592, -1.0114765167236328, 1.208738088607788, 1.8653223514556885, 0.6011978983879089, -0.9604792594909668, -2.171370506286621, -0.6073452830314636, -0.43642479181289673, -0.2604447901248932, 0.07529943436384201, 0.0906510055065155, -0.6541626453399658, -0.9989109039306641, 0.18786035478115082, -1.0421686172485352, 0.4407278895378113, -0.009352795779705048, -0.9780954718589783, 0.2069329172372818, -1.7449313402175903, -0.11730879545211792, -0.6325080990791321, -0.36420848965644836, 1.314521074295044, -0.38294124603271484, -1.1912897825241089, 0.17603446543216705, 2.0435714721679688, 0.7866578102111816, 0.944602370262146, -0.03614147752523422, 0.9765340089797974, 0.09577039629220963, -1.2718446254730225, 1.9210892915725708, -1.0294675827026367, -0.9608198404312134, -0.748711109161377, -2.4257795810699463, 0.13786183297634125, 1.2711564302444458, -1.5537161827087402, -1.1584491729736328, -1.0149731636047363, 0.9662570357322693, 1.200432538986206, 0.2511141896247864, -1.5005322694778442, -0.6693035364151001, -1.0277998447418213, -0.5176313519477844, 0.5783400535583496, 0.6790911555290222, 0.33180227875709534, 0.2714376449584961, -0.2551960051059723, 0.30155670642852783, 1.029699444770813, -0.20718196034431458, -0.6755689382553101, 0.828402578830719, 1.4078541994094849, 0.6361566781997681, -0.6001597046852112, -0.24170847237110138, -1.0117539167404175, 3.0700759887695312, -0.736825704574585, -1.8302984237670898, 0.9479659199714661, 1.9491199254989624, 0.655357301235199, 0.8002721667289734, -0.4707484245300293, 0.33216315507888794, 1.1545995473861694, 0.16536729037761688, -0.5650202035903931, -0.46890777349472046, 1.6250362396240234, -0.10156303644180298, -0.4399583339691162, 1.0258551836013794, -0.19136269390583038, -0.7973637580871582, 0.0649978443980217, 0.14040200412273407, -0.3152613043785095, 0.8648995161056519, 0.5189816355705261, -0.04901137948036194, -0.8266052603721619, -0.9343663454055786, 0.5761479735374451, -0.10440798103809357, -0.4630514979362488, -0.04613392427563667, 2.164316415786743, 0.6484306454658508, -0.9874811768531799, -1.7455971240997314, -0.2378041297197342, -1.2724159955978394, 0.5908318161964417, -2.382120370864868, 0.45278745889663696, 1.4383125305175781, -0.8025969862937927, 0.3032224476337433, -0.6120066046714783, -1.4805428981781006, -2.161064624786377, -1.5601097345352173, 0.8207104206085205, 0.8924998641014099, -1.6529016494750977, 0.7556877136230469, -0.6505457758903503, -0.2670212388038635, -2.4111926555633545, 0.6279851198196411, 2.44370174407959, 1.7133837938308716, -0.3303435146808624, 1.6994165182113647, 1.086142659187317, 1.714233160018921, 0.4088754951953888, 1.8574072122573853, 0.7920314073562622, -0.8327544927597046, -0.3954181373119354, 1.110977292060852, -1.9708830118179321, -0.5138934850692749, -0.8065775632858276, -1.7668989896774292, 0.006171111483126879, 0.5448096394538879, -0.0034042345359921455, 0.08495600521564484, -0.5459502339363098, 0.04669274389743805, 1.076123833656311, -0.22288453578948975, -0.09465105086565018, -0.4103488326072693, 0.25818300247192383, -0.27575501799583435, 1.1137686967849731, -1.073745608329773, 0.6934915781021118, 0.21666903793811798, 1.2844595909118652, 0.08028709143400192, 0.5021728873252869, 0.8319240212440491, 0.9168952703475952, 0.5419120192527771, -0.14233028888702393, 0.49214744567871094, -0.18962810933589935, 1.0267037153244019, -1.1132348775863647, 0.5819206237792969, -0.32835036516189575, -0.09594210237264633, 2.9877822399139404, 2.2852160930633545, 3.028585195541382, -0.48221665620803833, 0.1520567685365677, 1.636468768119812, 0.7392304539680481, 0.36111506819725037, 1.6630791425704956, -0.08280868828296661, -0.19950668513774872, -0.3388146758079529, -0.9921519756317139, -0.22210605442523956, 0.9228497743606567, 0.2910369038581848, 2.0039358139038086, 0.9078767895698547, -0.07063759863376617, 0.10821010917425156, -1.352306604385376, -0.08900696039199829, -0.2911708354949951, 0.6331946849822998, 0.6212552785873413, -2.96938157081604, 0.5972466468811035, -0.16951650381088257, 0.3900918960571289, 0.9072098135948181, -0.02296268753707409, -0.021109038963913918, -2.2848026752471924, 0.33530986309051514, -1.0798979997634888, -1.539553165435791, 2.590723752975464, 1.162779450416565, 0.556807816028595, 0.8549136519432068, -1.032310128211975, -0.6822671294212341, 0.44164207577705383, -1.1133896112442017, 0.5845759510993958, 1.489166259765625, -0.6120248436927795, 1.5445690155029297, 0.5117725729942322, -0.5519850254058838, -1.3101391792297363, 0.5528222918510437, -1.49558687210083, -0.36146560311317444, 0.8693825602531433, -1.3704967498779297, -0.06535805761814117, -0.03685058653354645, 0.4446030259132385, -1.1553916931152344, 0.6943954229354858, 2.0051772594451904, 0.011631741188466549, -0.35684388875961304, 0.7374626994132996, 0.3784840703010559, 0.7061202526092529, -0.7143547534942627, -1.4342780113220215, -0.7430013418197632, 0.32471704483032227, 2.220043659210205, -1.2383763790130615, 0.5004165768623352, -0.796758234500885, 0.541318953037262, -0.8669514060020447, -0.9664369821548462, 0.3621727228164673, 1.4100298881530762, -0.5880281329154968, -1.220888614654541, -1.8815691471099854, 0.9942386150360107, -2.4247021675109863, 2.0225210189819336, -2.398728132247925, 0.5600475668907166, 1.1182494163513184, 0.5874744057655334, -0.45181387662887573, -0.2364778369665146, -0.40004321932792664, 1.582940697669983, 1.0235421657562256, 1.3984453678131104, 0.36920225620269775, -0.8983792066574097, -1.9063557386398315, -0.15645572543144226, -0.27862271666526794, -1.9055824279785156, -0.5575915575027466, -0.7199693322181702, -0.4855266511440277, -0.011195957660675049, -0.6070149540901184, 0.1893552988767624, 1.2714022397994995, -0.08538471162319183, 0.3457229733467102, -1.1566083431243896, 1.4192841053009033, 0.37671974301338196, -2.052828550338745, 1.5640199184417725, -0.2112301141023636, -0.15085504949092865, -1.616030216217041, -1.1542384624481201, -1.8400920629501343, -0.3270910382270813, 1.2945400476455688, 1.1336628198623657, -0.06884685158729553, 0.24348372220993042, 0.9261812567710876, -0.09369299560785294, 3.610558271408081, -0.555221676826477, 0.022678405046463013, 1.3675289154052734, 0.2232459932565689, -0.1596287488937378, -0.3551742434501648, -0.3763106167316437, -0.7928405404090881, 0.3082191050052643, -1.223300576210022, -1.0363001823425293, 0.7863402366638184, 0.10972046852111816, 0.7111059427261353, -0.7295529842376709, 1.05768883228302, -0.5642501711845398, 0.1949445903301239, -1.0528885126113892, 0.5290258526802063, -2.590704917907715, 2.1018972396850586, -0.5361824035644531, -1.6057510375976562, 0.00447362894192338, -0.5700691938400269, 0.5072003602981567, -0.7631739377975464, 0.653502881526947, -0.534570574760437, 0.6486274600028992, 0.01857396960258484, -2.319705009460449, 0.18424127995967865, -0.15416690707206726, 0.7312390208244324, 0.6959176063537598, -0.1599939614534378, -0.8896743655204773, -1.8636890649795532, -0.7089179754257202, 0.6471103429794312, 0.5962628126144409, -0.9973180890083313, -0.24169066548347473, -1.3124172687530518, 1.0455574989318848, -1.1329519748687744, -0.5615453124046326, -1.9108632802963257, -0.4127538204193115, -0.9955511093139648, -2.803473949432373, -0.32422128319740295, 1.4925057888031006, 1.3758655786514282, -0.3810090720653534, -0.8514281511306763, 0.8872173428535461, 0.3030599355697632, 0.19840775430202484, 0.03362474963068962, -0.03396066650748253, -0.9249411225318909, -0.565095067024231, 1.479401707649231, 0.46020764112472534, 0.5474062561988831, 0.9028701186180115, 0.19547295570373535, -0.5670455694198608, -0.7245299220085144, 0.5275949835777283, -0.4316546320915222, 0.40796151757240295, 0.5976881384849548, 0.7851940989494324, -1.6326961517333984, -1.1442441940307617, 1.1761811971664429, -0.6378618478775024, 0.739166796207428, -0.2943424582481384, 1.831640362739563, -1.7020633220672607, 1.7040153741836548, -0.7126922607421875, 0.6878519058227539, 0.9897584915161133, 0.16502846777439117, 0.2524246275424957, -0.5640166997909546, -0.7049716114997864, -0.029467696323990822, 0.587711751461029, -0.14366188645362854, -0.4617065191268921, 2.8406684398651123, 0.09273884445428848, -0.059512779116630554, -0.834656834602356, 1.3063669204711914, 0.5490908026695251, -0.7097743153572083, -0.09062463790178299, -0.7127468585968018, -0.2455085963010788, 0.6547703146934509, 0.06921691447496414, -0.7037445306777954, 1.8161978721618652, 0.4124331474304199, 0.06928844004869461, 0.1964084506034851, 1.7094424962997437, 0.08406621217727661, -1.158380150794983, 0.6452760696411133, -2.3927643299102783, 1.1135963201522827, 1.0765252113342285, 0.06453877687454224, -0.7074554562568665, -1.6957746744155884, 1.2373435497283936, 0.386733740568161, -1.2021198272705078, 0.17553578317165375, -0.16149969398975372, 0.5523765087127686, 1.4209139347076416, -0.3943195044994354, 1.8574234247207642, 0.05334283784031868, 1.0930095911026, 0.16260257363319397, 2.01528000831604, -0.05894255265593529, -0.45593151450157166, -1.1478888988494873, 1.1370612382888794, -0.8136418461799622, 0.05420370399951935, -0.10768254101276398, 0.2745538353919983, -0.7001956105232239, -0.7793983817100525, 0.4286588728427887, -0.5907761454582214, 0.2848640978336334, 0.676749587059021, -0.5734989643096924, -0.2781352400779724, -0.5308743119239807, -0.39743050932884216, -0.3097221255302429, 0.25093287229537964, 0.7491319179534912, 0.43442991375923157, 0.2915554344654083, 1.2708057165145874, 2.0994207859039307, 0.6372098326683044, -0.3241391181945801, 0.6042307019233704, -0.20269732177257538, -0.5273199081420898, 0.45543551445007324, -0.5916376113891602, 0.08408616483211517, 0.8720354437828064, -0.9977898001670837, -2.1955060958862305, 0.7326964139938354, 2.034677267074585, -0.8241938352584839, 1.4538134336471558, -0.0693773478269577, -1.4218469858169556, -0.6927470564842224, -0.3088821470737457, -1.0070303678512573, -0.5032810568809509, -2.1034555435180664, 1.1280555725097656, 0.09441781044006348, 1.5750840902328491, 1.166461706161499, -0.3422832489013672, -0.38302695751190186, -1.0350933074951172, 0.29937663674354553, -1.0166680812835693, 1.2712550163269043, 1.4298099279403687, -0.1889469027519226, 0.1442519575357437, -1.3819544315338135, -0.25537747144699097, -0.9688055515289307, -0.5887439846992493, -0.5724800825119019, -0.8181002736091614, 0.6696673035621643, -0.8389325141906738, -0.5227325558662415, -0.6539799571037292, -1.1816132068634033, -0.7685251832008362, -1.0121755599975586, 0.7535435557365417, -0.12370532751083374, 0.206083744764328, 0.378244549036026, -0.8437440395355225, -0.7649898529052734, 1.0438082218170166, -0.6502151489257812, -1.0539005994796753, -0.25856128334999084, -0.6499979496002197, 1.162631869316101, -0.1331273913383484, 0.28793343901634216, 0.4705364406108856, 0.11903601884841919, -0.8908547759056091, 1.3756295442581177, -1.006122350692749, 0.6231598258018494, -1.4434599876403809, -0.21653759479522705, 1.481011986732483, 0.3025256395339966, 1.4555200338363647, 0.13373541831970215, 0.6664526462554932, 1.188042402267456, -0.15034432709217072, 1.211586833000183, 1.8404737710952759, 0.5468818545341492, -0.23301221430301666, 0.2540484666824341, 1.2039002180099487, 0.0753483846783638, 1.330867052078247, -0.26383188366889954, 1.038296103477478, 0.5291122794151306, -0.012929840013384819, -1.3611223697662354, -0.6525037288665771, 0.39022621512413025, 0.15476734936237335, -0.7073597311973572, 0.2748728096485138, 0.2324870377779007, -0.12413163483142853, 0.4886725842952728, 0.7986394166946411, -0.055220965296030045, -0.9156662225723267, 1.3579074144363403, -0.8725578784942627, -1.10020911693573, -0.3168467581272125, -0.46881207823753357, 0.3980201780796051, 0.6067975163459778, 0.7939342260360718, 2.6171865463256836, -2.2329213619232178, -0.41520360112190247, -1.04671311378479, 0.5527220964431763, 1.995302438735962, 0.9183453917503357, 0.05221233516931534, -0.600152850151062, 0.09228113293647766, 1.0165294408798218, 0.31691640615463257, -0.08715270459651947, -1.167346715927124, 0.2070470154285431, -0.9953861832618713, -0.8849543333053589, -1.1060603857040405, 1.4763147830963135, -0.7775552272796631, 0.3739762604236603, -0.19292452931404114, -0.4819943904876709, 2.169705867767334, -0.030535833910107613, 1.1971241235733032, -1.2896451950073242, 1.9281831979751587, 0.5288368463516235, -0.6916508674621582, 1.4452344179153442, -1.7519036531448364, -0.8727071285247803, -0.5541499853134155, -0.37425127625465393, 0.8993902802467346, -0.3365885317325592, -0.8436627984046936, -0.7060078978538513, -1.536336064338684, -0.8018279671669006, 0.4898200035095215, 0.9374492168426514, -1.5194172859191895, 0.05924004688858986, -0.7405712604522705, -1.7380547523498535, -1.0908362865447998, 0.6587021946907043, 1.0291961431503296, 0.17419815063476562, 1.6415845155715942, -0.7338213920593262, 1.6899864673614502, 0.28416070342063904, 1.6577714681625366, -0.6072506308555603, -0.6896820068359375, 0.4422154128551483, 1.2267755270004272, -0.6259997487068176, -0.28702399134635925, 1.8599451780319214, -0.4973912537097931, 1.1170239448547363, -2.317206382751465, 0.65419602394104, -1.9806455373764038, 0.42303934693336487, 0.8514928817749023, -1.5424771308898926, 0.0414418987929821, -0.37629106640815735, 0.0567675419151783, -1.1272529363632202, 0.8601396679878235, 0.2612435817718506, -1.5097486972808838, 0.471506804227829, 0.5040123462677002, -0.07596813887357712, 1.231619119644165, 1.6561797857284546, 0.6053849458694458, -1.506048321723938, 1.7195640802383423, 0.17480048537254333, -0.9675952196121216, 1.971948504447937, -0.93394535779953, -0.5483032464981079, 1.6629377603530884, 0.23598742485046387, 1.812092900276184, -1.297104835510254, 0.5080257654190063, 0.8959803581237793, -0.13209597766399384, 1.5559567213058472, -0.6443576812744141, -2.6952524185180664, 1.2709635496139526, -0.1038564071059227, 0.7651237845420837, -0.323129802942276, -0.5097793340682983, -0.1086389347910881, 0.024134168401360512, -0.08518055081367493, -0.34877318143844604, 0.4482075572013855, -0.19204989075660706, -0.76827073097229, 0.3611944019794464, 1.06980299949646, 1.5357019901275635, -0.8498273491859436, -1.1336424350738525, -1.0705475807189941, 1.0451397895812988, -0.7179365754127502, 0.40120255947113037, 0.5371113419532776, 0.9840196371078491, 1.4361145496368408, -0.6997480392456055, 0.5972968935966492, 0.6781668066978455, -0.20403820276260376, -0.44491589069366455, 0.17495021224021912, 0.8000625967979431, -0.15854929387569427, 0.5817804336547852, 0.09875735640525818, -0.48893555998802185, -0.05248890817165375, -1.433640718460083, -0.9550161361694336, 1.4024239778518677, 2.043311357498169, 0.09932990372180939, 1.3993473052978516, 0.07966528087854385, 0.5691535472869873, 0.5493736267089844, -1.112239956855774, 1.119581937789917, -0.42879796028137207, 1.4332650899887085, 0.30261150002479553, 0.5613035559654236, 0.6911435127258301, -0.21336887776851654, -1.0859050750732422, 0.11117272078990936, 0.724078893661499, 1.0090899467468262, -0.7975799441337585, -0.04651329666376114, 0.05832391604781151, -0.6365185976028442, 0.8790931105613708, -0.5264464616775513, 1.5292798280715942, -0.0016986869741231203, -1.5350879430770874, 1.3237429857254028, 0.8990792632102966, 0.3508409559726715, -0.87433260679245, -2.5433895587921143, -0.32464852929115295, 1.194899082183838, 0.06451524794101715, 0.27288952469825745, -1.5832797288894653, -1.1849617958068848, -1.3619340658187866, -0.6636388897895813, 0.30640605092048645, -0.3917764127254486, 0.5471965074539185, -0.14869698882102966, -0.12466663122177124, 0.5244898796081543, -0.6861481070518494, -0.07873449474573135, 0.18345890939235687, -0.7258203625679016, 1.2366013526916504, 0.15761025249958038, 1.083940029144287, -1.0860400199890137, -0.47589319944381714, -0.06133260950446129, -0.25555333495140076, 0.16571779549121857, -0.6228355765342712, 0.45107612013816833, 0.42119982838630676, 1.718706488609314, -0.3654496371746063, 0.05477401986718178, 0.4005368649959564, 0.7348203063011169, -0.14279146492481232, 1.1053649187088013, -0.059633027762174606, -2.460512161254883, 1.7744059562683105, 1.2453430891036987, -0.8422656655311584, 0.8070756196975708, -0.053917817771434784, -0.21642380952835083, -0.745599091053009, -0.1221126839518547, 0.2604338824748993, 0.5764502286911011, -0.5566860437393188, 1.8102017641067505, 0.24119172990322113, -0.13202816247940063, -0.4133966267108917, -0.3420194089412689, 1.0163999795913696, -0.8066526055335999, 0.2747000455856323, -0.13362601399421692, -0.513393223285675, -1.8366032838821411, 0.5264539122581482, 0.4055365324020386, 0.12280816584825516, 0.6931835412979126, -0.3188524544239044, -0.803317129611969, -1.6102986335754395, 1.6781139373779297, -0.14785176515579224, -1.345424771308899, 0.5540390014648438, -0.6206287741661072, -0.0404658243060112, -0.20458461344242096, -1.166577696800232, -0.3390512466430664, 0.8901466727256775, 0.6246383786201477, -0.8007641434669495, 0.926042377948761, 0.705483615398407, -0.8749343156814575, 0.0062279291450977325, -0.6797153949737549, -0.009307190775871277, 0.2265172302722931, -0.1807764619588852, -0.5216045379638672, 1.2297248840332031, 0.4154523015022278, 1.0614582300186157, 0.13578949868679047, -0.6717847585678101, -0.6387153267860413, 0.037618815898895264, 0.31335321068763733, 0.4769626259803772, 2.0549614429473877, -0.32803478837013245, 1.0387048721313477, -0.9257882237434387, 0.6874969005584717, -0.18831567466259003, 0.4834640920162201, 0.03893345966935158, -1.1652230024337769, -1.9132238626480103, -0.07174082100391388, -0.645987868309021, 0.39423537254333496, 0.0022415299899876118, -0.031017329543828964, -1.5034459829330444, 0.4581409692764282, 0.058102671056985855, 1.0730592012405396, 0.12764997780323029, -0.861824095249176, 1.433038592338562, 0.187050923705101, -0.187754824757576, 0.5359713435173035, 0.7716465592384338, 0.06101687625050545, -0.0741293877363205, -0.3850988447666168, 0.7766453623771667, -0.13464069366455078, 0.18657320737838745, 0.25688937306404114, -0.4906272888183594, 0.6831705570220947, 0.1124388799071312, -0.47244223952293396, -0.027868716046214104, -1.6809214353561401, 0.04010041430592537, -0.8318479061126709, 0.4878818988800049, -0.47495511174201965, -0.32822665572166443, -0.7712681293487549, -1.1561861038208008, 0.654776930809021, 0.18458344042301178, 0.4947127401828766, -0.32863134145736694, -1.2670001983642578, -1.3180739879608154, 3.120745897293091, 0.40994757413864136, -1.043150544166565, -0.16785036027431488, 0.7141762971878052, 1.0461190938949585, -1.8127448558807373, -0.9173104763031006, 0.5695400238037109, 0.4719559848308563, -0.8829241394996643, 1.6457465887069702, -0.8113126754760742, 0.06148592755198479, 0.25517910718917847, 1.194748878479004, -0.09594497084617615, -0.012197744101285934, -0.8582868576049805, -1.5094630718231201, 0.31674084067344666, 0.9634488821029663, -1.3533097505569458, 0.39496666193008423, -0.3978063762187958, -0.622651219367981, 1.3617151975631714, 0.6048763990402222, 0.8198285102844238, -0.38386738300323486, 0.19110026955604553, -0.08020894974470139, 0.9318931102752686, 0.8913925290107727, -0.5303347110748291, -0.04552297666668892, -0.04519620165228844, 1.1162556409835815, 1.3241933584213257, -0.197906956076622, -0.33109351992607117, 0.2999013066291809, 0.21416477859020233, 1.6679586172103882, -0.6209980249404907, 0.4539163112640381, -1.1044853925704956, -1.1347836256027222, -0.7778185606002808, -0.7418861389160156, -0.38522422313690186, -0.7033154964447021, 0.6997494101524353, 0.5085305571556091, -1.9388655424118042, 0.5805796384811401, 0.048860371112823486, -0.3340454399585724, 0.7815474271774292, -1.1933073997497559, 0.23578672111034393, 2.0372817516326904, 1.3039079904556274, 0.2850654721260071, 0.8264924883842468, 0.7120087146759033, -0.2742505371570587, 1.4733518362045288, -2.512824058532715, 0.8096176981925964, 1.2090262174606323, -1.3422462940216064, 0.544552743434906, -0.14016981422901154, -0.26696303486824036, -0.9221134781837463, -1.7478817701339722, -0.3272896111011505, 0.5231956243515015, 0.4968492090702057, 0.6503225564956665, 0.6702194809913635, -2.0156099796295166, 0.9432074427604675, 0.6951553225517273, 1.646092176437378, 0.369790643453598, -1.0551773309707642, 0.3969879746437073, 0.7258424758911133, 0.0704168751835823, 0.32723942399024963, -0.5842017531394958, 1.559404730796814, -0.6020728945732117, -1.0805823802947998, 0.8620166778564453, 0.1877705305814743, -0.20897044241428375, 0.6582764387130737, -0.5647157430648804, 0.039396438747644424, 0.6916837096214294, 0.15141576528549194, -1.1287026405334473, 0.48876821994781494, 0.6133249998092651, 0.012088190764188766, 0.5794599056243896, -1.9680112600326538, 0.49354639649391174, 0.010944523848593235, 2.364377737045288, 1.3482786417007446, 2.189154863357544, 1.2557780742645264, -0.5532492995262146, -0.4039677679538727, 2.008321523666382, 0.35278022289276123, -0.8053717613220215, 2.118654489517212, 0.3759554922580719, -0.44286930561065674, -1.045080304145813, 0.667475700378418, 0.49171027541160583, 0.17614509165287018, 0.49296465516090393, 0.2614783048629761, -1.080118179321289, -0.28083691000938416, 0.6992762684822083, 0.2869749665260315, 0.2991023659706116, 0.36633872985839844, -1.1756583452224731, -0.16897524893283844, -0.011280406266450882, 1.274571418762207, 0.10621583461761475, 0.14169245958328247, -0.5992719531059265, -0.11345993727445602, 1.109632134437561, 0.4232257306575775, -0.3680681884288788, -0.42328065633773804, 0.8084890842437744, -0.18954670429229736, 1.648565411567688, -0.20591457188129425, -1.3171052932739258, 1.5163894891738892, 0.04981227591633797, 0.2190229445695877, -2.2716572284698486, 0.9563387632369995, 0.6992071866989136, -1.3738408088684082, -0.6915727257728577, 1.807241678237915, 0.607599675655365, 0.5209091901779175, 0.2871187627315521, -1.2460062503814697, -0.2683834433555603, 1.4585450887680054, -0.8828821778297424, -0.6709102392196655, 2.911759853363037, -1.4895015954971313, 0.45868760347366333, 0.010189655236899853, -1.9165675640106201, -0.6012730598449707, -0.12597621977329254, 0.7375420331954956, -0.8688451647758484, -0.2728569805622101, -1.1044012308120728, 1.6331255435943604, -0.6510418653488159, -0.058704622089862823, -2.002258062362671, -1.813022255897522, -0.5945701003074646, 0.5972301959991455, 0.6625645160675049, 0.5529282689094543, 0.8584983348846436, -1.6463671922683716, 0.12002117931842804, -0.5569820404052734, 1.1246219873428345, 0.622420072555542, 0.330548495054245, -0.09516420215368271, 0.30012497305870056, -1.840185523033142, -0.46273550391197205, -0.5713376998901367, -1.2454040050506592, 1.015753149986267, -0.7923030853271484, 0.4627968668937683, -0.613189697265625, -0.5773432850837708, -1.9335906505584717, -0.1457003653049469, 0.2468116283416748, 0.6310509443283081, -0.18260465562343597, -0.9668797850608826, 0.029229778796434402, 0.6047995686531067, 1.703206181526184, 0.6387600302696228, 0.3064793348312378, -0.15167373418807983, 2.0996477603912354, 0.35995087027549744, -1.1903382539749146, 1.274501085281372, -1.528410792350769, -1.512114405632019, -0.2845841646194458, 0.7711917757987976, 1.7487269639968872, -1.2105047702789307, 0.6774674654006958, -2.493896961212158, -0.0989275574684143, -0.4702392518520355, -0.3519414961338043, 0.9481813311576843, -0.5520306825637817, 0.5429847836494446, -0.0779607892036438, -0.5394734740257263, -0.9064950346946716, -0.8147498965263367, 0.18515010178089142, -0.07329846173524857, -1.1331729888916016, -0.8332578539848328, 1.3017816543579102, -0.6272918581962585, -2.0231971740722656, -1.7594355344772339, 0.297002911567688, -0.02277597412467003, -1.7156487703323364, -0.5148510336875916, 0.882874071598053, 0.220093235373497, 0.20783855020999908, 0.5577580332756042, -0.9629178643226624, 0.8337976336479187, 0.09880956262350082, 0.0956907719373703, 0.4129060208797455, -1.2551356554031372, 0.5134777426719666, -0.4594495892524719, 1.015194296836853, 0.31826984882354736, 0.8952406048774719, -1.0340275764465332, -0.6993168592453003, -0.5756494998931885, -1.4386523962020874, -0.14912161231040955, -0.05183044448494911, -1.1894975900650024, 0.4953581988811493, 1.7889316082000732, 0.6426874399185181, 0.10740500688552856, 1.373963713645935, -0.43323424458503723, -1.0450853109359741, 0.9435519576072693, 0.6990121603012085, -1.5568581819534302, -1.1013436317443848, 0.770353376865387, -1.2956737279891968, -1.7361913919448853, 0.8530554175376892, -0.7593063712120056, -1.3232423067092896, -0.9182341694831848, 0.10028336942195892, -1.1833114624023438, -0.5117361545562744, -0.47662678360939026, -0.8886504769325256, 1.9971152544021606, 0.3914097249507904, -0.14354941248893738, -1.7897189855575562, 0.2852150499820709, -1.6616888046264648, -0.6338855028152466, -0.5644550919532776, -0.5179822444915771, -1.2306662797927856, 1.3468729257583618, -0.06642277538776398, -0.8426848649978638, 0.40193381905555725, 0.7723857760429382, -2.396280527114868, 2.1216723918914795, 0.04775256663560867, -0.1605694591999054, -0.28660279512405396, -0.36824658513069153, 0.37850210070610046, -0.48949500918388367, 0.312964528799057, 1.2733354568481445, 1.048630952835083, 0.6556867361068726, 0.9348480105400085, -0.20395594835281372, 1.1637214422225952, 0.9721766710281372, -0.31806984543800354, 0.03444197401404381, 1.5991438627243042, -0.03734314441680908, -1.1089259386062622, 1.9934910535812378, -0.7987501621246338, -1.09353768825531, -1.6022653579711914, 0.18833521008491516, -1.4059909582138062, 1.728644847869873, -0.17700529098510742, -1.5029096603393555, 0.15886780619621277, -0.8368971943855286, 0.38577306270599365, 0.2882463335990906, -0.40516313910484314, -1.1029293537139893, -1.1753088235855103, 0.9166250824928284, 1.1457158327102661, -0.3136579394340515, -0.9860110282897949, -0.10942667722702026, 2.2802302837371826, -0.04593968391418457, 1.360435128211975, -1.587578535079956, -0.597652792930603, -0.45827704668045044, -0.6178104281425476, 0.25185173749923706, -0.34598204493522644, -0.4356984496116638, -0.31686678528785706, 1.0956127643585205, 0.06973866373300552, -1.532806634902954, -0.5325447916984558, -0.38436710834503174, 0.9921064376831055, 0.5340560674667358, -0.8893990516662598, -0.9176436066627502, -0.6152738928794861, -0.8173426389694214, 0.4960850179195404, -0.18939243257045746, -1.4355281591415405, 0.5040976405143738, -1.5670106410980225, -0.9013492465019226, 1.0383394956588745, -0.807032585144043, 0.047501351684331894, -1.1628501415252686, 0.5656236410140991, -1.1964596509933472, -0.6521068811416626, -1.1580307483673096, -0.7328542470932007, -0.09135350584983826, 0.42391055822372437, 0.18779295682907104, -0.06928837299346924, 0.6700944304466248, -0.2781604826450348, -0.5736197829246521, -1.6245571374893188, 0.9902998208999634, -0.39574921131134033, -0.9767863154411316, 0.26238155364990234, -1.1083112955093384, 0.9673082828521729, 0.9328380823135376, -0.5660058259963989, 0.6000427603721619, 1.048164963722229, 1.269582986831665, -1.025899887084961, -0.4485801160335541, 0.705649733543396, 1.0705217123031616, 0.8343320488929749, 0.03321405500173569, 0.6005011796951294, 0.05351870879530907, 0.8436011672019958, 1.8520796298980713, -1.6045827865600586, 0.5580838322639465, -0.2613372206687927, -0.6429393887519836, 0.21850532293319702, -0.419362336397171, -0.9704357981681824, 0.8339365720748901, -0.7865837216377258, 0.7026488184928894, -1.8723796606063843, 1.322306513786316, 0.6550112366676331, 0.1954469084739685, -1.925924301147461, -1.667733907699585, -0.3617991507053375, 0.8596099019050598, 1.3648632764816284, 0.8917602300643921, -1.2844274044036865, -0.9618549942970276, 1.252916932106018, 0.06636561453342438, -0.6937087178230286, -0.43905022740364075, -0.4550071656703949, 0.9082151055335999, -0.8827225565910339, 1.3344976902008057, -0.1597440540790558, -0.7714100480079651, -1.1426146030426025, -0.1366514265537262, 0.8077665567398071, -2.233943223953247, 1.9064743518829346, 0.5986655950546265, 0.6549000144004822, 1.5572214126586914, 0.6098891496658325, 0.2884296774864197, -0.09403487294912338, 1.7815288305282593, -1.3378145694732666, 1.912540316581726, -0.6989641189575195, 0.30900275707244873, 0.1500999480485916, -0.9442346096038818, -0.8584061861038208, 1.9957304000854492, 1.5561991930007935, 1.2820024490356445, -0.015926845371723175, -0.8621063828468323, -0.34150946140289307, -0.7613615393638611, 0.6384347677230835, -1.597496747970581, 1.5597801208496094, 0.4856860041618347, -0.3752467632293701, 0.17238275706768036, 0.9281727075576782, 1.1250542402267456, -1.3068673610687256, -0.4347490668296814, -0.40459659695625305, 0.5216322541236877, -0.3496529757976532, -1.3562530279159546, -0.3774533271789551, -0.23680637776851654, -1.530040979385376, -0.5047096610069275, 0.030262844637036324, 0.5511613488197327, -0.7570788860321045, -1.7686349153518677, -1.5021743774414062, -0.22041530907154083, 1.2532484531402588, -1.276391625404358, 0.3918140232563019, 0.40303000807762146, 0.6723930835723877, -0.6390746235847473, 0.22469700872898102, -1.1811480522155762, 1.597701072692871, -1.5152437686920166, -0.004998817108571529, 1.5931813716888428, 0.42810115218162537, -0.3747532069683075, 1.0539389848709106, 0.8823778033256531, 1.510419249534607, -0.3128134608268738, 0.7139578461647034, 2.358294725418091, -1.857011079788208, -0.20705406367778778, -1.3099793195724487, 0.5438704490661621, 2.177863359451294, 0.9264703392982483, -2.133847713470459, 1.6747488975524902, 1.2466490268707275, 2.3746464252471924, 0.5557266473770142, -0.03311510011553764, 2.1851022243499756, -0.1540338695049286, -0.08446146547794342, -0.3143070638179779, 0.5879040360450745, 0.2882586717605591, 0.25971487164497375, -0.27028965950012207, 0.36828887462615967, -0.6416484117507935, 0.8659006357192993, -0.12305598706007004, 0.23155494034290314, -0.9453088045120239, -0.7373952865600586, 1.2547616958618164, 0.10642583668231964, -0.7551950216293335, -1.6824464797973633, 0.7392374873161316, 1.1897464990615845, -0.15296362340450287, 0.2547024190425873, -2.6120500564575195, 2.4475114345550537, -0.6988489627838135, 0.4386143982410431, -0.8181117177009583, -0.7182543277740479, 0.19302035868167877, -1.2912214994430542, 1.764424204826355, 0.5272126197814941, -1.5777100324630737, 0.933690071105957, 0.399015873670578, 1.076576590538025, 0.0821928083896637, -0.16575761139392853, 0.42615291476249695, -0.34162747859954834, 0.11664716899394989, -1.0450806617736816, -0.019200708717107773, -1.2731181383132935, -0.5164368152618408, -0.9490230679512024, -1.687666654586792, -0.4110010266304016, 1.0887842178344727, 0.9570947289466858, -0.3510553538799286, -1.6654435396194458, -0.14175844192504883, 0.6926765441894531, 0.5369380712509155, 0.6955503225326538, 0.4011602997779846, 0.16736190021038055, -1.7228949069976807, 0.031490929424762726, -1.2419925928115845, 0.0745193362236023, 1.302213191986084, 0.10365678369998932, -1.328260898590088, -0.10345862060785294, -0.2594132423400879, 0.22285352647304535, 1.532718539237976, -0.06754110008478165, 0.9535002112388611, -0.7474504113197327, 1.3029844760894775, 0.36994248628616333, -0.2748289108276367, -1.4926762580871582, 1.338625431060791, -0.7938147187232971, -1.328203558921814, 1.7187159061431885, 0.6450149416923523, 1.5320533514022827, -1.1528517007827759, -0.15082406997680664, -2.0360498428344727, -0.901269793510437, 0.21132221817970276, 1.358667016029358, 0.968953013420105, -0.49892258644104004, -1.192388653755188, -0.7328113913536072, 0.4055224657058716, -0.18022873997688293, 2.7035915851593018, 1.7546637058258057, -0.1602063775062561, -0.506583034992218, -0.3881158232688904, -1.9208711385726929, -0.6097484230995178, -1.0222622156143188, 0.05171441659331322, -0.6781426072120667, 0.6234943866729736, 1.226244330406189, -2.152879476547241, 0.6879347562789917, 0.7474344372749329, 0.10564684122800827, -0.7430219054222107, 1.007372498512268, -0.10456293821334839, 0.2569054365158081, 0.8647729754447937, -0.18839575350284576, 0.7185086011886597, 0.01949588768184185, 0.68171626329422, -0.03763630986213684, 0.5224063396453857, 0.067049540579319, 1.1184579133987427, -0.29149794578552246, 0.2776798903942108, -0.16491490602493286, 0.33628538250923157, -0.48693811893463135, -0.7146289348602295, -0.17513422667980194, 2.459355115890503, 0.0005664577474817634, -0.14384542405605316, -0.947501540184021, -0.1086445301771164, -0.3351309299468994, 0.26842111349105835, -0.6106078028678894, 0.9531895518302917, -0.8697905540466309, -1.7411617040634155, 0.5011560916900635, -0.02475249022245407, 0.48284822702407837, -0.25061097741127014, 0.6819299459457397, -0.0380270853638649, -1.1334601640701294, -0.7353934049606323, -0.6339007616043091, 0.09336531907320023, 1.2636572122573853, 0.4607469141483307, -0.19304266571998596, -1.3399477005004883, 0.31284281611442566, -2.740283250808716, 0.30833005905151367, -1.134500503540039, 1.494861364364624, 1.896154522895813, 0.17289789021015167, -1.1345927715301514, 1.2274893522262573, 0.05664669722318649, 0.76163250207901, 1.300081491470337, 0.35786566138267517, -1.3050944805145264, -0.49964994192123413, 0.35123947262763977, -0.897601842880249, 0.9508323669433594, -0.5850303769111633, -0.6259976625442505, -0.3519129753112793, -0.23950344324111938, 0.23511280119419098, 0.5155155062675476, -0.8270828723907471, 0.6345819234848022, 0.5254725813865662, -0.7365452647209167, 1.9093339443206787, 0.8002503514289856, -1.2624592781066895, 1.9281542301177979, 1.6665606498718262, -1.663772702217102, 0.07164491713047028, 1.8721262216567993, 0.15634818375110626, -1.1238075494766235, -0.17259962856769562, 0.6561954021453857, -2.2255537509918213, -0.3314133286476135, -1.9150018692016602, 0.5736258029937744, 0.13661950826644897, -0.2619056701660156, -0.26753270626068115, 0.9430919885635376, 0.18879124522209167, 0.11242371797561646, 0.4349675178527832, -0.30790844559669495, -0.8222479224205017, -1.3909701108932495, -0.6965447664260864, 2.003080129623413, -0.990493893623352, 0.22459445893764496, 0.4430990219116211, -0.5702350735664368, -0.5066755414009094, 0.6291623115539551, 0.6963610053062439, -0.5836869478225708, -0.4884757995605469, 0.339692622423172, 2.0803511142730713, 1.5482375621795654, 1.1169127225875854, -1.2538515329360962, 0.6439710259437561, 1.2806211709976196, -0.006761658471077681, 1.2451025247573853, 0.17190834879875183, -0.9773993492126465, 0.09349154680967331, -0.34743866324424744, -0.122505784034729, -0.7240245342254639, 0.7045571804046631, -0.4692758619785309, 0.13840912282466888, 0.045384589582681656, -0.3627856969833374, 0.14268644154071808, 0.6218101978302002, -0.2856600880622864, -0.796880304813385, -1.0050890445709229, 1.2518348693847656, -0.4138474762439728, -0.5550981760025024, -2.217716932296753, 0.715362548828125, 0.4502655863761902, 0.8523027896881104, -1.052647590637207, 0.7539891004562378, -0.8455142974853516, 0.10225264728069305, 0.6772387623786926, -1.341956615447998, -0.3123854696750641, -0.058779552578926086, 1.2057301998138428, -0.3224949240684509, 1.2913837432861328, -0.7132651805877686, 0.9269016981124878, -0.32110947370529175, -0.35006076097488403, -0.579284131526947, 1.3572875261306763, 1.8774670362472534, -1.2057318687438965, -0.14616744220256805, 0.5962618589401245, 1.099239468574524, 2.1228175163269043, 0.1659003645181656, 0.19377467036247253, -0.4471878111362457, -1.049683928489685, 0.23485204577445984, -0.24878281354904175, 0.5959508419036865, -0.28627580404281616, 0.13746583461761475, -0.05422873795032501, 0.6051097512245178, -0.5139838457107544, -0.015853557735681534, 0.01149260625243187, 0.10632356256246567, -0.05442703142762184, 0.7674798965454102, 0.7067262530326843, -0.6948077082633972, 0.767400324344635, -0.5240102410316467, -0.2128157615661621, -1.6375126838684082, 0.04791085422039032, 0.741409420967102, 0.02491745539009571, 0.19564320147037506, 0.7302259802818298, 2.012256622314453, 1.8014384508132935, 1.2360670566558838, -0.2866498529911041, -0.9063496589660645, 0.30877989530563354, -0.7013471126556396, 0.08482290804386139, -1.6535440683364868, 0.8575279116630554, 0.5342926979064941, 0.28116270899772644, 1.470335602760315, 0.6487452387809753, 1.8693403005599976, 0.7571982741355896, -1.0365476608276367, -1.0705512762069702, -0.6201106309890747, -0.2692922353744507, -0.941608190536499, -0.03278128057718277, -1.2280179262161255, 1.1446703672409058, 0.08467424660921097, -0.7253242135047913, -0.17913031578063965, 0.35676637291908264, -0.758827805519104, -0.5463622808456421, -0.22646081447601318, 1.3220258951187134, 0.13004668056964874, 1.1566401720046997, -0.16308417916297913, 1.2713041305541992, 1.2885991334915161, -0.08036277443170547, 0.11416639387607574, -1.203345775604248, -1.0900263786315918, -1.0369389057159424, -0.21119067072868347, 1.4207351207733154, 0.7806980609893799, 1.949946403503418, -0.10899274051189423, 0.05495156720280647, 2.5121288299560547, 0.11835061013698578, 1.4138402938842773, 0.6801348328590393, 1.6675493717193604, -0.06601511687040329, 0.35348302125930786, 0.2390938699245453, 0.7641229033470154, 1.1367623805999756, -0.13618288934230804, -0.04521629959344864, 1.268296718597412, 0.8363510966300964, 0.7286980748176575, -0.4474712908267975, -1.956501841545105, 2.5675365924835205, -0.3313397467136383, -0.3570897877216339, -1.8978943824768066, 0.9188225865364075, -1.0416337251663208, -0.3033420145511627, -0.8053464889526367, -1.0262335538864136, 0.537241518497467, -0.2949228286743164, -0.2697233557701111, 0.5867334008216858, -0.4615938663482666, -2.4235188961029053, 1.005029559135437, 0.8122325539588928, 1.0182322263717651, -0.3086494505405426, -0.3054860234260559, -0.5195868611335754, 2.2852237224578857, 1.9467016458511353, -2.16361665725708, 0.024999575689435005, -0.7365896105766296, 0.47173476219177246, 0.32821252942085266, 1.1928356885910034, -0.5164374113082886, -0.13318751752376556, 1.0108284950256348, 0.49473023414611816, 0.0875406488776207, -1.0248981714248657, -0.514734148979187, -0.48121461272239685, -2.400329113006592, 1.2020825147628784, -0.34080055356025696, -0.3457452654838562, 0.9552449584007263, 0.8934271931648254, 0.019969547167420387, -0.9618330001831055, -1.755586862564087, 0.2973869740962982, 2.156733512878418, -2.7394392490386963, 1.3430454730987549, -1.1011601686477661, 0.11739865690469742, -0.15249843895435333, 1.2775439023971558, 0.39378976821899414, 0.2812539041042328, -0.3819007873535156, 0.2566867470741272, 2.4785821437835693, -0.2446761131286621, 0.19810029864311218, -1.998826026916504, -2.164560079574585, 1.269078016281128, -0.80656498670578, 0.5777333974838257, -0.36309170722961426, 0.28553444147109985, -0.10872065275907516, 0.7524809241294861, 0.4282968044281006, -1.249045729637146, 1.1777206659317017, 0.14404436945915222, 0.6583045721054077, -0.03917679935693741, -0.5093582272529602, -1.3021270036697388, -0.10640006512403488, -1.0878808498382568, -0.102421335875988, -0.31280532479286194, -0.9710827469825745, -0.6064837574958801, -0.6508195996284485, -0.5286206603050232, 0.6640740633010864, -1.2404778003692627, -0.8260465860366821, 1.818552017211914, -0.6114078164100647, -0.2295786291360855, 1.1340421438217163, -0.2291455864906311, -1.3750548362731934, 0.3229147493839264, -0.23996351659297943, 0.1685783863067627, -0.7050344944000244, 2.8821029663085938, 2.546574354171753, -0.5188620090484619, 1.663360595703125, 0.04355631023645401, -1.145217776298523, -0.95782470703125, 0.9138746857643127, 0.509560763835907, -0.7121652364730835, -0.014828723855316639, -0.20751917362213135, 0.4148655831813812, -0.6617157459259033, -1.935851812362671, 0.5252375602722168, -1.3555516004562378, -1.4539340734481812, 1.042323350906372, -0.6542713046073914, -0.4667963683605194, -0.20598278939723969, 0.2816509008407593, 0.12625345587730408, 0.8193393349647522, 1.1013165712356567, -0.36948680877685547, -0.6997449994087219, -1.1146451234817505, 0.07814335823059082, -0.4923337697982788, -0.28353896737098694, 2.271789312362671, 0.5981150269508362, -0.03913292661309242, 0.9809117913246155, 0.09098082035779953, -0.48634377121925354, -1.0733524560928345, 1.8562138080596924, 1.187501311302185, 2.4457833766937256, 0.27161285281181335, -0.013274496421217918, 0.9711727499961853, 0.0466323159635067, -1.7205214500427246, -1.3288248777389526, 0.5867133140563965, -0.7533237934112549, 1.3063095808029175, 1.0099060535430908, 0.08214092999696732, 0.46918785572052, 0.06956735253334045, -1.5747276544570923, 0.49076947569847107, -1.6283310651779175, 0.563666582107544, 0.41043606400489807, 1.8270138502120972, -0.27503502368927, -0.7349801659584045, -1.0372010469436646, -0.09425628185272217, 1.2590973377227783, -0.09201475977897644, -0.06783989816904068, 1.2782081365585327, -0.03875724598765373, 1.1037282943725586, 1.3683724403381348, -0.3730807900428772, -0.4270864427089691, -0.32790085673332214, 1.605989694595337, 1.7573916912078857, 2.1420302391052246, 0.08920929580926895, 0.6255979537963867, 1.3576281070709229, 0.6769163012504578, -1.0286448001861572, -0.2307308167219162, 0.016767317429184914, 0.5215256214141846, 0.9135456681251526, 1.5100191831588745, 0.09148869663476944, -0.7637129426002502, -0.03811515122652054, 0.7411103844642639, -0.5231277346611023, 0.21991072595119476, 0.18585945665836334, -0.29141682386398315, 0.6962060928344727, -0.6012321710586548, -1.166443109512329, -0.7986783385276794, -0.541120707988739, 1.740321159362793, 0.9231800436973572, -1.0834401845932007, 0.16022229194641113, -0.6690596342086792, 0.5426324605941772, -0.3051643371582031, -0.21465998888015747, -0.07891932874917984, -0.6912838220596313, 1.1023367643356323, -0.25800323486328125, 1.1377116441726685, -0.7826840281486511, 0.020510759204626083, 0.8068098425865173, 0.7352725267410278, -0.7231020927429199, -0.0905022844672203, 0.22642546892166138, -0.14690415561199188, -0.008172670379281044, -0.17861229181289673, -0.6654494404792786, 0.7839230298995972, -1.1472946405410767, 1.319118618965149, -0.08989968150854111, -1.623626947402954, 0.10229338705539703, -0.07808852940797806, -0.14729174971580505, -2.1004838943481445, -2.036639928817749, -1.5067073106765747, 0.30223873257637024, 0.33290624618530273, 0.239983469247818, 0.9461244344711304, -0.5391783714294434, -0.5504786968231201, 0.4585075378417969, 1.1809788942337036, 0.44832995533943176, -0.693891704082489, 0.2544933557510376, 0.11878088861703873, -0.07950818538665771, 0.384260356426239, -1.1608195304870605, -0.2865215241909027, -2.320173978805542, -0.49296334385871887, 0.11556702852249146, -0.5537524819374084, 1.2953742742538452, -0.4614979028701782, -0.03632132336497307, 0.8190728425979614, 0.35433241724967957, -1.7540028095245361, -1.5942697525024414, -1.419812560081482, 0.5161291360855103, 1.0930219888687134, -0.20810015499591827, -1.0005959272384644, 0.23212508857250214, -0.5445897579193115, -0.4404881000518799, 0.08768695592880249, 0.7294031977653503, 1.1307117938995361, -1.2820227146148682, -0.4788038432598114, -1.83579683303833, -1.1319810152053833, 2.3132436275482178, -0.672873318195343, -0.0482916496694088, 1.2146682739257812, -0.5764440894126892, -0.867882490158081, 0.13134907186031342, 0.8546869158744812, -0.9652559757232666, 0.3459430932998657, -3.0185513496398926, 0.33854687213897705, 0.006441107951104641, -0.6579313278198242, -0.4761165678501129, -0.8518049716949463, -0.07284698635339737, 0.15863072872161865, 0.5331584215164185, 1.3193546533584595, -0.18405260145664215, -1.4758206605911255, 0.18386974930763245, 0.17643025517463684, -0.06634688377380371, 0.10498735308647156, 1.3844987154006958, -1.1798739433288574, -0.19736355543136597, -0.022382095456123352, 0.16717322170734406, -0.7623963952064514, -1.0568773746490479, 0.12569691240787506, 0.18162590265274048, 0.19731231033802032, -0.6780965924263, -0.07257918268442154, 1.0773754119873047, -0.7429265379905701, -0.4202142357826233, -0.533113956451416, -0.543743371963501, 2.2825608253479004, 0.5132339000701904, -0.329219251871109, -0.05094349384307861, 0.7011559009552002, -0.1393832266330719, 0.7933093309402466, 0.07579655200242996, -0.8051635026931763, -0.8565114140510559, -0.45863255858421326, -0.606310248374939, 0.3281180262565613, 0.39186063408851624, -0.43543118238449097, 0.3640701174736023, -1.6128920316696167, 1.174803614616394, 1.1335676908493042, -1.841309666633606, 0.13662296533584595, -0.8865812420845032, 0.50105220079422, 0.3691646456718445, 0.5619445443153381, -0.7713366746902466, 0.042512815445661545, 0.16686752438545227, -0.5159421563148499, -1.698138952255249, -1.120859146118164, -0.27198076248168945, 1.2198176383972168, -0.6559374332427979, -1.328762412071228, 0.7388148307800293, -1.26099693775177, 0.21630029380321503, -0.6121905446052551, 0.48546302318573, 0.3378240168094635, -1.794931173324585, -1.0039477348327637, 0.10007024556398392, -1.249000906944275, -0.1273907721042633, -0.8709534406661987, 0.04087034985423088, 1.1896014213562012, -0.15431906282901764, 0.6493730545043945, -0.7155660390853882, -1.3653508424758911, 0.4461120367050171, -0.9828231334686279, 0.26968541741371155, -0.29555967450141907, 1.252147912979126, 0.1484120637178421, 0.3877454102039337, 0.884431004524231, -0.8837155699729919, 0.03337451443076134, -0.35798394680023193, 0.47242334485054016, -2.6374523639678955, 1.1043097972869873, 0.20007145404815674, 0.8517520427703857, -0.9335611462593079, 0.3977184593677521, -0.5411056280136108, 0.1015029326081276, 0.31426507234573364, 1.154934287071228, 0.6321909427642822, 1.7305526733398438, -0.019312933087348938, 1.5616639852523804, -0.888272762298584, 1.631313443183899, 0.7654020190238953, 0.37373900413513184, 0.21531960368156433, -0.9967944622039795, -1.590301275253296, -0.7303723096847534, 2.167668581008911, -0.7209836840629578, -1.1194194555282593, 1.1862313747406006, 0.2309463769197464, -0.32977378368377686, -0.5384074449539185, 1.6852048635482788, -0.27800363302230835, -0.04434069246053696, 0.450784832239151, 0.8858224153518677, 0.13177473843097687, 0.7188994884490967, 1.570844292640686, 1.5633584260940552, -0.3594422936439514, -1.8453195095062256, 1.5876600742340088, 0.9090354442596436, -0.8795852661132812, -1.0721145868301392, -0.21411482989788055, -1.151330828666687, -1.1882325410842896, 0.7299451231956482, -1.3379448652267456, -0.713712215423584, -0.7696736454963684, 0.8132422566413879, 0.9694898128509521, 1.8297514915466309, -0.6117116808891296, -0.9836263656616211, -0.578680157661438, -0.022438032552599907, 0.5759844779968262, -0.12095557898283005, 0.3707970380783081, 0.6733884811401367, 0.42060387134552, 0.42050373554229736, -1.1614439487457275, 1.4221529960632324, -1.0227149724960327, -0.468692421913147, 0.14890381693840027, 3.0925347805023193, 0.05266686528921127, -0.23494479060173035, -0.6582167148590088, -0.6769490242004395, -0.5968869924545288, -1.0626331567764282, -0.2699410915374756, 1.4225693941116333, 0.2218577265739441, 1.648309350013733, 1.24895179271698, -1.0337917804718018, 1.161110281944275, -1.1676528453826904, 1.9898357391357422, 1.1868966817855835, 0.729306161403656, 0.2226361632347107, 1.6609913110733032, 0.8443660736083984, -0.2413037121295929, -1.9971002340316772, 0.26684510707855225, -1.269942045211792, 0.715674638748169, 1.8859741687774658, 0.8050982356071472, -1.6883548498153687, -0.4163404703140259, -0.01899372786283493, -0.9261664152145386, -0.21340905129909515, -1.6035637855529785, 0.8764121532440186, -0.6448560953140259, -0.9301028847694397, -1.4520472288131714, 0.2346043437719345, -1.0299793481826782, -0.8444532752037048, -0.7581941485404968, -0.4300191104412079, -1.7550625801086426, 0.4196149408817291, -0.3520272970199585, 0.42383286356925964, 2.0303049087524414, -1.2469134330749512, 0.24784013628959656, -0.7741434574127197, -1.1035977602005005, 1.1159478425979614, 0.30770164728164673, -1.4681730270385742, 0.9448265433311462, 0.04333149269223213, -0.1057722344994545, 1.652700662612915, -0.07404449582099915, 0.45540064573287964, -1.857843279838562, 0.6967578530311584, 1.0417858362197876, -2.267368793487549, 0.05538282170891762, 0.7168570756912231, 1.1219731569290161, 1.1992747783660889, -2.530508518218994, 0.84428870677948, -0.40467968583106995, 0.4926418662071228, -0.939489483833313, -1.4457627534866333, -0.3072717487812042, -0.8106733560562134, 0.1293531358242035, -1.0770140886306763, 0.18474410474300385, -0.388450562953949, -0.06983719766139984, 0.628106415271759, -0.35921043157577515, 1.193743348121643, -1.0123307704925537, -2.5160024166107178, 0.5391132831573486, 0.97434002161026, 0.2737963795661926, -1.6979269981384277, -0.1663181632757187, -0.3014126718044281, -0.15417927503585815, -0.2461182177066803, 0.6259897351264954, -2.633342742919922, 0.20305627584457397, 0.3428562879562378, 1.5508604049682617, -0.4990696907043457, -0.7947283983230591, 0.5249146223068237, 0.050774578005075455, 1.031062364578247, -0.9443464279174805, 0.4551452696323395, -0.8521401882171631, 0.28709810972213745, 1.355149745941162, -0.8201500773429871, -0.7452050447463989, -1.9284024238586426, -1.4954196214675903, 0.5698503255844116, -1.045663595199585, -1.5002152919769287, -1.3967102766036987, -0.5821212530136108, -0.15165315568447113, -1.1016896963119507, -0.9984228610992432, -2.9915826320648193, -1.9109588861465454, 0.4268721044063568, -0.7747852802276611, -2.1659696102142334, 0.6193006038665771, 1.7904020547866821, -0.2769211530685425, -0.49565520882606506, 0.2067258656024933, 0.023253081366419792, 1.6042590141296387, 0.38169413805007935, -0.5289815664291382, -0.19190451502799988, -0.8897088170051575, -1.0697898864746094, -0.42629274725914, 1.2242438793182373, -1.9397233724594116, -0.8943718075752258, 0.30817803740501404, 0.7074241042137146, 1.1968594789505005, 1.1843918561935425, -0.5551273226737976, -2.0435309410095215, -2.572194814682007, 0.30057069659233093, 0.9142802357673645, -1.214115858078003, -1.738878846168518, -0.1644062101840973, -0.8740897178649902, -0.3525952994823456, 0.9142186641693115, -0.4320634603500366, -0.8182804584503174, 0.7293389439582825, -0.388616681098938, 1.090551495552063, -0.03116745874285698, 0.6891530156135559, 0.8981311321258545, 0.7672744393348694, -0.5873906016349792, 0.565818727016449, -0.9297640919685364, -1.1961818933486938, -0.8029167056083679, -0.099080890417099, 0.060798898339271545, -0.20693127810955048, 0.960556149482727, -0.8866233229637146, -0.47922202944755554, -2.1027016639709473, 1.9044524431228638, 0.37552711367607117, -0.33754652738571167, -0.5753211379051208, -0.4413565695285797, -0.9834760427474976, 0.401820570230484, 0.5667086839675903, -0.024822544306516647, 0.7214264869689941, 0.13646213710308075, 2.152038335800171, -0.0696786567568779, -0.8930414319038391, -1.2945715188980103, -0.19201608002185822, 2.1118850708007812, 0.07600276917219162, 0.2192838191986084, -1.9604973793029785, -0.13149526715278625, -2.793457508087158, -0.32977351546287537, 3.0106584745226428e-05, -0.5715876817703247, 0.09902407974004745, -0.02273397520184517, 0.0004976298660039902, -0.2095865160226822, 1.7009501457214355, -1.2461518049240112, 1.1396175622940063, 0.8335838913917542, -0.7042379379272461, -0.24275362491607666, 0.2719717025756836, -0.6522043943405151, -1.7170355319976807, -0.17388956248760223, -0.9883289933204651, 0.5870583057403564, -0.25120097398757935, -1.5448789596557617, 0.11801072210073471, -0.7760097980499268, -0.708646833896637, -0.2817258834838867, -0.36768725514411926, 0.461936891078949, 0.5124849677085876, -0.16169799864292145, -0.5117745399475098, -0.6416812539100647, 1.3792904615402222, -0.33636149764060974, 0.9957194328308105, -0.45507359504699707, -0.5521056056022644, -0.29514771699905396, -0.29105913639068604, 1.0357791185379028, -1.5090513229370117, 0.3413439691066742, 1.2150148153305054, 0.236517995595932, -0.7152647972106934, 0.8106834292411804, 0.5531139969825745, -0.2353842556476593, -1.4871457815170288, -1.3499642610549927, 0.742250382900238, 0.2076423466205597, 0.3414326608181, -0.6836392879486084, -1.610152244567871, -1.2651280164718628, -0.5169125199317932, 0.5320469737052917, 1.433471918106079, 1.261948823928833, -0.42030447721481323, -1.5751047134399414, -0.04625425860285759, -1.0439831018447876, -0.13731752336025238, -0.18465368449687958, 0.019290555268526077, 0.42166396975517273, -0.4239800274372101, 1.4021475315093994, 0.9941203594207764, 0.3027397692203522, -0.8642913103103638, 1.8800816535949707, -1.3928415775299072, 0.2313070148229599, -1.0507757663726807, 0.26022666692733765, 0.05661717429757118, -0.45302772521972656, -0.9150952100753784, -0.10979308933019638, -0.8744168877601624, 1.681707501411438, -0.21980644762516022, 1.0610579252243042, 0.3450910151004791, 0.5000921487808228, 1.2070285081863403, 1.204933524131775, -1.2263737916946411, -0.20093117654323578, -0.11643517762422562, 0.6084198355674744, -1.2891991138458252, -0.10422158241271973, 0.8459574580192566, -0.5394744873046875, 0.016347233206033707, -0.20412370562553406, -0.5203845500946045, 0.41218045353889465, -0.10147717595100403, -0.5632588863372803, 1.5110570192337036, 0.21009761095046997, -0.9349200129508972, 0.8280870914459229, 0.9412180781364441, 1.1283059120178223, -0.6119875907897949, 0.5102271437644958, -0.3944645822048187, -1.1849795579910278, 0.7506919503211975, 0.07631046324968338, -1.0718289613723755, -0.35012978315353394, 1.6804946660995483, 0.9511753916740417, -1.3506823778152466, 0.2742665112018585, -0.8075271844863892, 1.1607898473739624, -1.317556619644165, -0.03290687873959541, -1.7578330039978027, 0.21899226307868958, 0.514477550983429, -0.931136965751648, -0.8945578336715698, 0.6457535624504089, 1.5308719873428345, -0.24922025203704834, -0.8055070042610168, -0.18307358026504517, -1.220634937286377, 0.4874962270259857, 1.2075092792510986, 1.4700180292129517, 1.4929708242416382, -1.5896787643432617, 0.03659078851342201, 1.0464638471603394, 2.3330276012420654, -0.4765637516975403, -0.8882822394371033, 1.6609143018722534, -1.588446855545044, -1.309398889541626, 0.5645810961723328, 0.41113436222076416, -1.4824252128601074, 0.598325252532959, -1.1307181119918823, 0.2941438853740692, -1.184638261795044, -0.2995346784591675, 0.6313780546188354, 0.13650912046432495, 0.6284122467041016, -0.6928351521492004, 0.9212801456451416, -0.5132850408554077, -0.2028452605009079, 0.7990320920944214, 1.7398033142089844, 2.194711923599243, 0.01930638588964939, -0.5521852374076843, 0.9756222367286682, -0.7724456191062927, 0.47106483578681946, 0.5978453159332275, 0.9590681195259094, -2.4287109375, 1.6510539054870605, -0.9068930745124817, -0.5166869163513184, -0.49928706884384155, 1.4835127592086792, 0.8674737811088562, 0.44798436760902405, 0.47154560685157776, 1.7058091163635254, -0.6011340022087097, -0.008250841870903969, -0.9436095952987671, -1.614647626876831, -0.042150598019361496, -0.4138816297054291, 0.11214756965637207, 0.6220299005508423, 0.5390681624412537, -0.9515431523323059, -0.7348893284797668, 0.41500356793403625, 0.9670149683952332, -1.1880872249603271, -2.4425835609436035, -0.3178822100162506, 1.4318907260894775, -1.395819902420044, 0.8119688630104065, -0.05653366446495056, -0.5066033601760864, -0.897225558757782, -1.2008150815963745, -0.29363253712654114, -0.03734596446156502, 0.5766558647155762, 1.02731454372406, -1.163879156112671, 0.7291277647018433, -0.5520855784416199, -1.4890127182006836, -1.00014328956604, 0.4723726511001587, -0.9152060747146606, 0.1097886860370636, -0.11108193546533585, 0.5198935270309448, 1.6480909585952759, -0.7977158427238464, 0.7601926326751709, -1.1699432134628296, 0.012156021781265736, 1.5350966453552246, -0.8244307637214661, -1.0266464948654175, 1.9403096437454224, 1.0041875839233398, -0.053686752915382385, -0.7473120093345642, 1.4529539346694946, 0.41684165596961975, -1.1694530248641968, -2.0132410526275635, -0.9540001749992371, -0.3773409128189087, 1.2295807600021362, -1.8020964860916138, -1.6483384370803833, 0.35990023612976074, 0.7796510457992554, 0.533073902130127, -0.47955039143562317, -0.6933126449584961, 0.18825627863407135, -0.8410928249359131, -0.9792057871818542, 0.5028811693191528, -0.3904332220554352, -0.2174513190984726, 1.798621416091919, -0.10530048608779907, 1.824872374534607, 1.3204658031463623, 0.5892015099525452, 1.2378746271133423, 0.015859363600611687, -0.5004475712776184, -1.726383924484253, 1.2765368223190308, 0.46770715713500977, 0.7451731562614441, 0.6707648038864136, 0.09893425554037094, 0.7357460856437683, 1.0133973360061646, 0.3235911726951599, -0.2520628869533539, 0.16354431211948395, -0.1767650991678238, -0.746469259262085, -0.31201598048210144, -0.42328599095344543, -0.9206061363220215, -1.1241179704666138, -0.5872691869735718, -0.16253413259983063, 0.4655234217643738, 0.7245042324066162, -1.97672700881958, 0.5636252164840698, 2.149340867996216, 0.8761605620384216, 2.167509078979492, 0.36257824301719666, 0.7308588624000549, -0.10595918446779251, 0.2649778723716736, 0.3761109411716461, -0.6939082741737366, 0.3546640872955322, -0.17519204318523407, 0.7045642733573914, -0.7710078358650208, -0.3574506640434265, -0.828475832939148, 0.6131632328033447, 0.61253821849823, -0.7919929027557373, -0.031557466834783554, 0.41061389446258545, 0.9843701720237732, 0.443656861782074, 0.2417251318693161, 0.9792088866233826, -0.992885947227478, 1.4359116554260254, 1.2589117288589478, -0.5229035019874573, 1.1677706241607666, 1.5914335250854492, 1.8611705303192139, 1.628752589225769, -0.07666277140378952, 0.358127623796463, -0.42951250076293945, -0.35412970185279846, 1.875508427619934, 0.8580987453460693, -0.7582395672798157, 0.5887488722801208, 1.0171133279800415, -1.1064867973327637, 1.0948327779769897, -1.9910343885421753, 0.6082867980003357, 0.746562659740448, 2.2327558994293213, -0.2890159487724304, 0.6006314158439636, 0.3840316832065582, -1.1406536102294922, -0.5217726230621338, -0.39729052782058716, 0.031062794849276543, -0.5687040686607361, -0.12454415112733841, 1.0075944662094116, 0.6477004289627075, -1.65817391872406, 0.4314543306827545, 0.780164361000061, 1.0038707256317139, -1.1424118280410767, 0.4035334289073944, -0.78596031665802, 0.9925940036773682, -0.10256454348564148, 1.0273962020874023, 0.8413054347038269, 0.7281104922294617, 1.0773907899856567, -0.19916591048240662, -0.39205241203308105, -0.4920510947704315, 1.3335176706314087, 0.5222236514091492, -0.6878681182861328, 1.5410314798355103, -0.8645101189613342, -1.1897166967391968, 0.21700134873390198, -1.6341849565505981, -0.8571493029594421, -0.40495142340660095, -0.5983599424362183, -2.431321620941162, -1.3569873571395874, 0.07829353958368301, -1.2472126483917236, 0.8633843660354614, -0.7344383001327515, 0.34803295135498047, -0.934831440448761, -1.1980525255203247, -0.5834746956825256, 0.30928558111190796, -0.4466738998889923, 0.7603263258934021, 0.2353879064321518, -0.5957975387573242, 0.458635538816452, -0.33822399377822876, -0.5301609039306641, 0.39446622133255005, -0.8400558233261108, 1.5934199094772339, 1.3216934204101562, -0.35016289353370667, 1.3764554262161255, 0.19964160025119781, 0.7359069585800171, 0.2202383130788803, 0.5342296957969666, -0.3163120448589325, 0.3553103804588318, 0.2288658320903778, 0.8694570660591125, -0.18498213589191437, 0.1891445815563202, -0.23882973194122314, 1.3796300888061523, 0.5607784390449524, 0.28149235248565674, 0.05238858237862587, -0.6178714036941528, -0.42393758893013, -0.5454810857772827, -0.1759916990995407, 0.04810289666056633, 0.40313267707824707, 1.1896370649337769, -0.5502278208732605, 0.6377905607223511, 1.0002739429473877, -0.2782132625579834, -0.4772963225841522, -1.6292630434036255, -2.273881673812866, 0.2421792447566986, -1.147761583328247, 0.9021587371826172, -0.4278118908405304, -0.18468984961509705, 1.4208478927612305, 0.14474354684352875, 1.198108434677124, -1.2117105722427368, -0.6732829213142395, -0.02133873663842678, 0.7315008044242859, 0.45809826254844666, 0.43300801515579224, 0.09949533641338348, -1.2864842414855957, 0.6440789103507996, -0.2551071345806122, 1.7104977369308472, 0.4204874634742737, 1.4952328205108643, 1.307601809501648, 1.268192172050476, -1.833229422569275, 0.5782087445259094, 0.00626806216314435, -1.6001697778701782, -0.5873109102249146, 0.17414319515228271, -1.8210664987564087, -0.299204558134079, 0.6349072456359863, 1.3330800533294678, -1.0920084714889526, -0.40097448229789734, -1.6791701316833496, -0.0424015112221241, 0.7359123826026917, 0.3129217028617859, -0.23296520113945007, 1.4357848167419434, -0.5613689422607422, -1.026528000831604, -0.5357738733291626, 0.3323301672935486, -0.09533437341451645, 2.0019171237945557, 1.3044971227645874, 1.8141764402389526, 0.4246838390827179, -0.9550089836120605, -0.9227883219718933, 0.18823635578155518, -1.015816569328308, -1.6343507766723633, 1.3953527212142944, 0.34656745195388794, -0.5081761479377747, -0.04463852569460869, 0.11620711535215378, -0.24890537559986115, -0.31621840596199036, -0.6246511936187744, -0.019862640649080276, 0.15469089150428772, 0.730006754398346, -1.5092427730560303, -1.6490161418914795, -0.6744279265403748, 1.5739612579345703, 1.5695093870162964, -0.30402711033821106, 2.08105206489563, -0.12172243744134903, -0.4971465468406677, -1.5535378456115723, 0.07517078518867493, -1.6332199573516846, -1.7333265542984009, -0.8255603909492493, 0.6973620653152466, 0.6812980771064758, -0.5435961484909058, 0.9014191627502441, -0.4732280373573303, -0.056685078889131546, -0.16782432794570923, -1.4615799188613892, -0.38011935353279114, -0.06260284036397934, 0.2115478366613388, -0.5402249097824097, -0.9549235701560974, -0.9683955311775208, 0.8108174204826355, -1.435444712638855, 2.732093334197998, 2.269303560256958, 0.12139943242073059, 0.10276824235916138, 0.7277137637138367, 0.6463448405265808, -0.083774633705616, 1.0608667135238647, 0.8358882665634155, 0.836422324180603, 0.6631587147712708, 0.763563871383667, 0.3085949420928955, 1.3717762231826782, -0.724907636642456, 0.04652883857488632, -0.39509710669517517, -1.5156861543655396, 1.0218075513839722, -0.9398277997970581, -0.04045591503381729, -0.040367115288972855, -0.10858019441366196, 0.16186293959617615, -1.0293956995010376, 0.008320804685354233, -0.2393844574689865, 0.458111971616745, -0.9520684480667114, 1.7845442295074463, -1.6359260082244873, 0.10272913426160812, -0.024151351302862167, 0.05171895772218704, -0.5171182751655579, 0.65160071849823, -0.9736799001693726, 0.5319249629974365, 1.091729998588562, -0.02829761616885662, 1.634706735610962, -1.5010534524917603, 0.5283011794090271, -0.00825551338493824, 0.3114241063594818, 1.4365755319595337, 0.9600718021392822, 0.9597064256668091, -0.30637824535369873, 2.1258041858673096, 0.7837704420089722, 0.4428267478942871, 1.5297491550445557, 0.48090463876724243, 1.3621289730072021, 0.021375635638833046, -0.6629848480224609, -0.4109072983264923, -2.091494083404541, -0.35851940512657166, 1.2193571329116821, -0.28598830103874207, -0.49761003255844116, 2.2578234672546387, 0.0776645764708519, -1.8939770460128784, -0.16646069288253784, 0.8695917725563049, 0.3180900812149048, 0.17857414484024048, -1.3714126348495483, 1.6506952047348022, 0.43246257305145264, 0.5491291284561157, 1.5649306774139404, -0.3834787607192993, -0.7829969525337219, -0.14642520248889923, 2.0793814659118652, 1.2018954753875732, 0.25797903537750244, 0.17900043725967407, 1.375847578048706, -0.7673783898353577, 1.0646981000900269, 1.0575071573257446, -2.113189935684204, 1.4993896484375, -1.276050329208374, -0.11683572828769684, 0.6365346312522888, 0.6179325580596924, 0.23876556754112244, 0.12174001336097717, -0.13714009523391724, -0.3780114948749542, 1.6311911344528198, -0.5384966731071472, -0.34140095114707947, 0.5093419551849365, 0.12397067993879318, -2.382924795150757, -1.4692683219909668, 0.9989602565765381, -1.9438586235046387, -0.00857000146061182, 0.5074403882026672, 0.3586178123950958, -0.6266617774963379, 1.31210196018219, 0.8450414538383484, -1.205133080482483, 0.4702858626842499, -0.9707414507865906, 1.1274932622909546, 1.1214367151260376, -0.23868249356746674, -0.28755801916122437, -1.6393561363220215, 1.1427414417266846, 0.10792765766382217, 0.4930100440979004, -1.924973964691162, 1.215395450592041, -0.8847901225090027, -0.6459496021270752, 0.9865854382514954, -1.6516766548156738, 1.355053424835205, -0.10748904198408127, 1.223428726196289, -1.553885817527771, -0.15328969061374664, -0.03575582429766655, -1.8294258117675781, -0.03356237709522247, -0.6625208854675293, 0.039148278534412384, 1.9961848258972168, 0.06383862346410751, 0.716911792755127, -0.41619881987571716, -0.05236347019672394, -0.7610313892364502, -0.7017098069190979, 0.17102034389972687, -0.8256374001502991, 0.09272345155477524, -1.200965404510498, 0.5310890078544617, 0.1508166790008545, -0.4493696093559265, -0.4763985872268677, 0.6355432271957397, -1.1381930112838745, 0.04601403325796127, -1.1522862911224365, 0.25513407588005066, 2.164672613143921, 0.17833533883094788, 0.4885377883911133, 0.5134832859039307, 0.5170266032218933, -0.043388113379478455, 2.1000189781188965, 0.7969749569892883, -0.5229949355125427, 1.7688919305801392, 0.018717331811785698, 0.504368007183075, -1.6905455589294434, 1.0141656398773193, -1.076924443244934, 0.5241458415985107, -1.0701210498809814, 0.3880273699760437, -1.7886356115341187, -0.14466537535190582, 0.7287275195121765, -1.6264498233795166, -0.06263265013694763, -0.9411969184875488, 0.16251178085803986, -1.6748156547546387, -0.7177103161811829, -1.1552881002426147, -1.2249565124511719, -0.5024206638336182, 0.8790823221206665, -0.05638386309146881, -0.4323790371417999, 0.4662143886089325, -0.00492381677031517, 0.4874868094921112, -1.5156257152557373, 0.7331088185310364, 0.08400697261095047, -1.7115767002105713, 0.06732847541570663, -1.0282310247421265, 0.9420133233070374, -0.3553711175918579, -1.7704858779907227, 0.30944037437438965, 2.248006582260132, 0.6834206581115723, 0.011560220271348953, -1.313169002532959, 0.07012346386909485, 0.3218514025211334, 0.7169162034988403, -2.0211713314056396, 0.16789767146110535, -0.048562947660684586, 0.5544147491455078, -0.24973447620868683, -0.0792355164885521, -0.2139454036951065, 1.1097315549850464, -0.2833195626735687, 0.5366901755332947, 0.9463822245597839, 0.9244347214698792, 0.11786483973264694, -1.5374977588653564, 0.18804042041301727, 1.271536946296692, -2.513896942138672, -0.648652195930481, -0.796966016292572, 0.26350536942481995, -0.44540345668792725, -0.6358870267868042, -0.6644335985183716, 0.26025673747062683, 1.9449833631515503, -1.537571907043457, 1.5921441316604614, -0.3493168354034424, 0.09680604934692383, -1.4617326259613037, -0.5559259653091431, 1.1391668319702148, 1.6863876581192017, -1.2130353450775146, 2.32952880859375, 0.5705611705780029, -0.18186183273792267, -1.376832365989685, -0.8401657342910767, -0.7189129590988159, 0.6849331259727478, 0.20927245914936066, 0.47221216559410095, -0.7120795845985413, 0.46112072467803955, 0.7867792248725891, 2.223505973815918, -1.6609972715377808, 0.4421539604663849, 1.2899988889694214, -1.2317967414855957, 0.08775324374437332, -1.733156681060791, 0.35878923535346985, 1.7676355838775635, 0.28937992453575134, -0.016842849552631378, -0.22982844710350037, -0.4830434322357178, -0.5607121586799622, 1.3379089832305908, 0.9834413528442383, 2.128070116043091, -0.586600124835968, -0.8075669407844543, 0.5602940917015076, 0.9339525103569031, -2.1319034099578857, 0.5307856798171997, 1.1522908210754395, -0.12579739093780518, -0.6520439982414246, -0.43888863921165466, -0.011045833118259907, 1.7311347723007202, -1.8245922327041626, 0.12395336478948593, 0.7464099526405334, 0.9767445921897888, 0.7073982357978821, 0.5507646799087524, 0.9130204916000366, 0.6195574402809143, -0.006830444559454918, -0.9504714012145996, 0.4338562786579132, -0.1008668914437294, 1.459887146949768, 2.068096876144409, -0.19744062423706055, 0.4394402801990509, 0.08629690110683441, 0.4596303403377533, -0.234511137008667, 0.00397781515493989, -0.6131002902984619, 0.21948830783367157, 0.6433326005935669, 0.45207566022872925, 0.5959555506706238, 0.8593724370002747, -2.0038399696350098, -0.07859174907207489, -0.5830274224281311, 1.0969656705856323, 0.5874614119529724, 0.1748722344636917, 1.0417156219482422, -1.4052674770355225, 0.4875078797340393, 1.2407344579696655, -0.45184326171875, -1.21039617061615, -0.1084415540099144, 1.8047229051589966, 0.6742032766342163, -0.621397078037262, 2.6837520599365234, -0.40315207839012146, 0.33887240290641785, -2.2302563190460205, -2.123342990875244, 0.2003849446773529, 1.6825915575027466, -1.9767887592315674, 0.4329289495944977, -0.841948390007019, 0.9952048659324646, 0.24651741981506348, 0.4115636944770813, -0.015459457412362099, -1.0694389343261719, 1.364559292793274, -0.18660859763622284, 0.4293811619281769, 2.1994640827178955, -0.9215711355209351, 0.4221309423446655, 0.27217191457748413, 1.665671706199646, -0.556596577167511, -1.3550969362258911, -0.40858131647109985, 0.3650169372558594, 0.6213034391403198, -0.3754885196685791, -1.5532407760620117, -0.20264917612075806, 0.6239486932754517, -2.054394006729126, 0.02109474502503872, -0.3610190451145172, 0.45007771253585815, -0.4348592162132263, 0.013443979434669018, 0.9374390840530396, 0.6686944365501404, 1.7989124059677124, 0.5252335071563721, -0.08103501051664352, -0.05246451124548912, 1.4875071048736572, 0.06222468987107277, 0.032001953572034836, -0.5558596849441528, 0.06497135758399963, 0.7470464706420898, 0.447326123714447, -0.5303566455841064, 0.9882351160049438, -1.383625864982605, 2.1276633739471436, 0.30317190289497375, -0.3265002965927124, 1.350651741027832, -0.8200525045394897, -1.6003177165985107, 0.18296894431114197, -0.8708181977272034, -1.8069257736206055, -1.232822299003601, -0.8861917853355408, 0.49801257252693176, -0.4352777600288391, 0.23369605839252472, -0.0250159353017807, -0.40186867117881775, 0.02120329812169075, -0.20393836498260498, 1.0612521171569824, 0.8291495442390442, -0.13177645206451416, 0.30486223101615906, 0.7520139813423157, -0.5757243037223816, -0.5156306028366089, 0.06577711552381516, 0.9119698405265808, 0.7347067594528198, 1.5272750854492188, -1.1283257007598877, -2.3440821170806885, -1.0740376710891724, 0.1892595887184143, -0.761940598487854, -0.4787164032459259, -0.2582429349422455, 1.465193748474121, -0.9583285450935364, -0.8518694043159485, 0.029299138113856316, 0.6358632445335388, 0.21018430590629578, -0.8006924390792847, 0.9497458338737488, -1.06873619556427, -0.5454968810081482, -1.0618464946746826, -0.5727487206459045, -1.2361814975738525, -0.9841321706771851, -0.7828516364097595, 0.49226057529449463, -0.20895883440971375, -0.31922197341918945, -0.638569176197052, 0.3810751736164093, 0.3477265238761902, 0.4591912627220154, 1.09770929813385, -0.9110010266304016, -1.3497298955917358, 0.1537976861000061, -0.9730227589607239, 0.6043757796287537, -2.0596818923950195, 0.6291683316230774, 0.02018481306731701, -0.45248907804489136, 0.24929450452327728, 0.1254126876592636, -0.5964605808258057, -0.40542006492614746, -0.11872897297143936, -0.2642708718776703, -1.1709331274032593, -0.5869209170341492, 0.26278021931648254, -0.6022100448608398, 0.3475085198879242, -0.842833399772644, 1.6938871145248413, 1.538783311843872, 1.557466983795166, -0.12835288047790527, 0.9222941398620605, 0.3415876030921936, 0.3342132568359375, -0.9709209203720093, -1.3116096258163452, -1.1325523853302002, -1.5253489017486572, -1.6257634162902832, -0.6710951328277588, -0.7948392033576965, -1.1602728366851807, -0.6108672618865967, 1.0349223613739014, 2.080221652984619, -0.44301632046699524, -0.46862295269966125, 1.29820716381073, 0.21283458173274994, 0.12373818457126617, 0.22847403585910797, 1.165612816810608, -0.1926882266998291, 1.515882134437561, 0.3058568835258484, -0.7068473696708679, 1.0369839668273926, 1.183637022972107, -0.5582234859466553, -0.7823559045791626, 0.39823469519615173, 0.16606083512306213, -0.2069575935602188, -0.03436816856265068, 1.0976924896240234, 0.1111222356557846, 0.9231106042861938, -0.5230920910835266, 1.1909892559051514, 0.1332632452249527, 0.22656820714473724, 0.3223924934864044, 0.8679848909378052, -0.4556577801704407, 0.5709976553916931, 1.0251981019973755, 0.7219964861869812, -0.5594155192375183, 0.99310302734375, -0.5705239772796631, 0.1884366273880005, 0.3270316421985626, 0.10608623176813126, 0.023233644664287567, 1.0373780727386475, 0.7109628319740295, -1.050466775894165, -2.6644656658172607, 1.5945993661880493, 0.7978614568710327, -0.6786817908287048, 1.276809573173523, -0.5110978484153748, -0.6073212027549744, 1.3488966226577759, 0.18719680607318878, -0.21070075035095215, -1.5770608186721802, -1.2283782958984375, 0.11666165292263031, 0.05923434719443321, -0.17987285554409027, -0.6900736093521118, -0.6712079048156738, -2.1353812217712402, 0.7930638790130615, -0.4773377776145935, -1.0448431968688965, 0.2570011019706726, 1.1367478370666504, 0.15056651830673218, 0.9197418689727783, 0.1807277798652649, 0.5591537356376648, 0.8375254273414612, -0.2117900550365448, 0.19419682025909424, 0.1696779727935791, -0.5873314142227173, 0.19361166656017303, -0.06864047050476074, -0.10629812628030777, -0.34906765818595886, -0.6737422347068787, -0.48517918586730957, -1.125423550605774, -0.7951329946517944, -1.730185627937317, 0.03033282607793808, -0.5959832668304443, 0.5241221189498901, -0.8676182627677917, -0.8018611073493958, -0.555080771446228, -0.335552841424942, 0.20809446275234222, 0.6829992532730103, 0.39194822311401367, -1.741518259048462, -1.342398762702942, 1.928813099861145, 0.2708071172237396, 1.0087443590164185, -0.8992478251457214, -0.7131074666976929, -0.8024685382843018, -0.01837611198425293, 0.39974451065063477, -0.025274114683270454, -0.8917896747589111, 0.7506075501441956, -1.2782217264175415, 0.8023399114608765, -1.1359870433807373, -0.016769906505942345, 0.28601279854774475, 0.611589789390564, 0.031920887529850006, -2.212676763534546, -0.7931950688362122, 1.1813087463378906, -0.06880985200405121, 0.8460425734519958, -1.9826632738113403, 1.6510766744613647, -0.48953720927238464, -0.4513387978076935, -0.8795939087867737, -0.4534233510494232, -0.8559212684631348, 0.2017144113779068, -0.3522731065750122, -1.0683828592300415, 0.27314767241477966, 1.5984424352645874, 0.018749097362160683, -0.018188416957855225, -1.0201711654663086, -1.0643119812011719, 1.422208309173584, -0.013912803493440151, 0.43531569838523865, -1.1431255340576172, 0.8269858956336975, 0.6672185063362122, 1.050766110420227, -1.0063591003417969, -0.10681986808776855, -1.4973807334899902, 0.44790446758270264, 0.17498593032360077, -1.558262586593628, -1.9286385774612427, -1.5920796394348145, 1.4614708423614502, -1.202875018119812, 0.7551848292350769, -0.5884101390838623, -0.08824459463357925, 0.2155137062072754, 0.648436963558197, -1.471716284751892, -0.14894987642765045, 0.748661994934082, -1.8292549848556519, -1.543731927871704, -0.8492369651794434, -0.2576438784599304, 2.230958938598633, -0.8718134760856628, -1.1039167642593384, -0.5135385394096375, 0.5899624228477478, -0.5579478740692139, 0.9405862092971802, 0.03198091685771942, -0.8939411044120789, -0.5146847367286682, -1.2419408559799194, -0.26679039001464844, 0.21659059822559357, -0.6324713826179504, 0.8963713645935059, -0.05752767249941826, -2.0192928314208984, -0.6013741493225098, -0.018918663263320923, 1.2180442810058594, -1.0690501928329468, 0.08469679951667786, -1.4132275581359863, -0.5555180907249451, 0.6358731985092163, -1.1911113262176514, 0.467300683259964, -0.8993456363677979, -0.27424630522727966, 2.6536054611206055, 2.420545816421509, -1.018460988998413, 1.3610409498214722, 2.179089069366455, 0.3075345754623413, 3.0853517055511475, -0.9574795365333557, 0.12055011838674545, -0.4768584370613098, -0.046868983656167984, -1.4999868869781494, 0.9617544412612915, -0.5612902045249939, 0.3531995117664337, -0.5138980746269226, -1.0993826389312744, -1.2602497339248657, -1.2669771909713745, 0.0535077229142189, -0.6142526268959045, -0.09404262900352478, -0.17745304107666016, -0.5634299516677856, 0.6267275214195251, 1.3036258220672607, -1.3608689308166504, -1.2614487409591675, 0.06685281544923782, 0.03233324736356735, 0.3878689408302307, -0.9943274855613708, 0.7796162962913513, 0.7272768020629883, -1.0336581468582153, -0.30121323466300964, -0.5945937633514404, 2.2950692176818848, -0.48837152123451233, -0.9569368362426758, -1.024452805519104, 0.9567528963088989, 0.6237819194793701, -0.963886559009552, -0.47663748264312744, 